363 100
粮库 0.079716496 0.19947702 -0.0020719136 -0.052491475 -0.071912326 -0.028946927 -0.09178516 0.012121891 -0.06432287 -0.019556344 -0.045680992 0.07970236 -0.14198826 -0.06493136 -0.038138222 -0.009087597 -0.112591416 0.14357859 -0.12552571 0.08591456 0.018172575 0.18125762 0.04773329 -0.18070376 -0.06881565 -0.012481344 0.039930087 -0.08060148 0.003570753 -0.07420887 0.13027023 -0.014231344 -0.1694409 -0.056983694 0.090201154 0.00058467814 -0.049009718 -0.030734979 -0.030283244 0.070586585 -0.035870466 -0.09250872 0.11526418 0.102733314 0.024008943 -0.21497752 0.106321126 0.05886373 0.04395169 -0.13458052 0.15234059 0.10404844 0.0058386773 -0.12529224 0.009710351 0.097087786 -0.042746615 0.20780598 0.17306913 -0.09900471 -0.009085146 0.0016144189 0.018098323 0.0884325 -0.088090114 0.11847614 0.08136338 0.09016854 0.06250228 -0.1516274 -0.14285408 -0.081447415 -0.028766282 0.052528296 0.07466406 0.09865846 0.060966037 0.16564809 0.1424812 0.13668597 0.055841375 -0.16269381 -0.15414701 0.06952342 0.18466336 -0.17123647 0.09431909 0.0004442816 0.107001 0.017999424 0.057758942 0.038034976 0.047008604 0.049961474 -0.033253357 -0.12581626 0.11195418 -0.1630761 -0.15227096 -0.09986327
人 -0.095408246 0.19035809 -0.10178423 -0.08743826 -0.11489244 -0.14491853 0.044462 0.023496985 -0.10723624 0.07598853 0.03061268 0.020239064 -0.15420608 0.0068719815 0.006653492 0.12318302 0.013336981 -0.024752343 -0.08244624 0.0175588 0.05128274 0.2094866 0.0019615034 -0.09868212 -0.1479808 -0.1621041 0.0790833 -0.016826792 -0.05196581 -0.18230411 0.09989839 -0.06791859 -0.19415367 -0.096267484 0.100576505 0.1607829 -0.08083341 0.094832435 -0.031271476 0.06455402 0.05321429 0.0026755289 0.0911454 -0.10284114 0.1173664 -0.11393341 -0.007701134 0.13066061 0.14321966 -0.10036277 0.20358309 0.17020002 -0.022279764 -0.12828332 0.06742067 0.0014314638 -0.01936209 0.13578627 0.11241608 -0.11697124 -0.06081578 0.08289254 -0.015096875 -0.014557891 -0.16847134 0.029120915 0.09732933 0.03458479 0.07046373 0.0105248 -0.008754807 -0.055524312 0.09355505 -0.05160424 -0.026309365 0.0763046 -0.104046725 0.17775063 0.06830432 0.07855475 0.117242396 -0.045480512 -0.13280202 0.073427245 0.19934504 -0.14036179 0.061034136 -0.039954897 0.12764299 0.06303922 -0.07734214 0.100243405 -0.09090564 0.03455233 -0.071686745 -0.090396956 0.13205194 -0.06260833 -0.1325001 -0.06407936
时 0.05285727 0.0095489025 -0.15895674 -0.012883999 -0.20738037 -0.053448636 -0.084477186 0.072716415 0.07565832 0.04746507 -0.03500708 0.04067026 -0.15963222 0.079792745 -0.11507079 -0.06712693 0.028242618 0.012158758 -0.06047617 -0.09015561 -0.06975448 0.044796236 0.0039462443 -0.19168058 -0.15297678 -0.11175895 0.1541245 0.02963326 -0.12101599 -0.2098654 0.19741814 0.13940915 -0.07381311 -0.1205549 0.22400051 0.01814211 0.11406744 0.04051746 -0.20647348 -0.0656193 -0.092355855 0.072300725 -0.028976316 0.0054691704 0.053658504 -0.155945 -0.072643615 0.046206743 0.0047376836 0.0005455036 0.110770114 0.11553574 -0.12192464 -0.033840984 0.105213195 -0.025954057 0.02741872 0.12458963 0.004996611 -0.08332275 -0.06114011 0.0809949 0.17744337 0.14082752 -0.039266307 0.18086503 -0.06586305 0.105736 0.06404267 0.04938901 -0.12564807 0.012423669 -0.011776313 -0.0029899653 0.072764516 0.13898554 0.016031792 0.09621833 0.048788365 0.24378832 0.08656329 -0.003541919 0.02825221 -0.050239082 0.003649103 -0.116629496 0.01419925 0.035268597 -0.00029045437 0.02635867 0.059200455 0.11986732 0.060951546 -0.09441856 -0.029695004 -0.12677173 0.0026497794 -0.16371669 -0.17373534 -0.0038368318
发生 -0.1055905 0.05779751 0.031910166 -0.10526348 -0.054522686 -0.1767814 -0.115135126 -0.11242004 -0.0898777 -0.12063682 0.14878924 0.0636445 -0.09458079 0.076307535 -0.025250081 0.023852535 0.0188265 0.12833796 0.0018494973 -0.10543526 0.06054492 0.19832332 0.13526094 -0.18281803 0.04181383 -0.13140932 -0.043338597 -0.03238134 -0.13336976 -0.05980447 0.1950218 0.055491563 -0.19501321 -0.10603443 0.08961361 0.16085212 -0.079259165 0.14480294 -0.067835435 -0.007897846 0.09090898 0.001414754 -0.080204666 0.09714751 0.07186246 -0.20512253 -0.036223054 0.098892115 0.076511115 -0.1553927 -0.0076512606 0.09889102 0.06235553 -0.12272108 -0.03186605 -0.081332386 0.11057504 0.171161 0.13279846 -0.12476396 0.009637418 0.083638564 0.16309872 0.18903568 -0.17547241 -0.031724386 0.097394966 0.014518915 -0.099272355 -0.027163753 -0.08814208 -0.067350194 0.03807221 0.0055954466 -0.0085025765 0.18501343 -0.015132933 -0.059551008 -0.05873869 0.026492823 0.09375317 -0.14418443 0.02204836 0.10749729 0.040513057 -0.03785462 -0.09310721 -0.0020330276 -0.10424963 -0.009501514 0.0108775785 0.028384978 -0.047311086 -0.046960823 0.057702743 0.038959336 -0.05033043 -0.13727105 -0.167273 0.03592405
死亡 0.12287203 -0.06456307 -0.13455941 -0.12125355 -0.09898975 -0.15049101 -0.1440822 -0.04672353 -0.0628526 -0.1079673 0.07789139 -0.06680198 -0.19425292 -0.0882784 -0.056754626 -0.1105716 -0.06151492 0.0028043292 -0.1655377 0.045260333 -0.0049017137 0.07700159 0.12096316 -0.20207593 0.030496726 -0.18000571 -0.025693467 0.01952401 -0.17118771 -0.1399405 0.12632358 -0.08922729 0.028329402 -0.16942368 0.19252035 -0.012710038 -0.07357845 -0.025899414 0.018029114 0.021810114 0.09363102 -0.043954257 -0.02303256 -0.10269896 0.10438451 -0.07147697 0.023985911 0.19099537 0.18789938 -0.060347624 0.15805718 0.175624 0.0617163 0.08223283 -0.06304774 0.10294473 0.030612757 0.074826494 0.08534988 -0.007853822 -0.01663687 0.14670931 -0.09210069 0.065819316 -0.13372447 0.18985008 0.067386985 0.037327107 -0.038588002 0.038470283 -0.065039985 0.100440115 -0.04493556 0.12563407 -0.12564075 -0.07342999 0.042325657 0.057295088 0.120104335 -0.002124653 0.061316617 -0.13725798 -0.043012433 0.12591845 0.09920081 -0.10709175 -0.03472819 0.10602898 0.013015322 0.02689463 0.036545943 0.046972647 -0.0013840722 0.09594284 -0.051634654 -0.107728235 0.016726777 -0.2209012 0.0033731817 -0.00393551
粮食 -0.0037121132 0.19396836 -0.09537426 0.1314576 -0.20952822 -0.045168445 0.002591114 0.025996774 0.11084394 -0.1376296 0.07526357 -0.13062963 -0.1428737 0.073416054 -0.12668002 0.15649487 -0.17080317 -0.060021356 0.015345478 0.09698985 -0.15698017 0.2034403 -0.034269787 -0.107685395 -0.007147544 -0.101586126 0.1389445 -0.001261069 -0.17918828 -0.15800332 0.20310871 0.071636744 -0.17488347 -0.041861743 0.16157384 0.04230393 0.10892371 0.15786731 0.003836874 0.04980661 -0.13702199 0.0024122165 0.064854264 0.07318434 0.08367776 -0.024443913 0.06350693 0.023753684 0.07115876 0.06287729 0.0283315 0.0690224 -0.09618441 -0.0051533678 0.10061117 0.053349677 -0.067001775 0.02772807 0.005978634 0.059027825 -0.090883635 0.033748236 0.11357706 0.110557124 0.006569657 0.09973016 -0.09602218 0.10940807 0.026655188 0.0049341265 0.048108667 -0.054907534 -0.06737468 0.04021436 -0.0018161297 0.10280813 0.04981867 -0.07163041 0.048134718 0.09984429 -0.10330494 -0.18038528 -0.117492415 0.11453146 0.16247727 -0.20008752 -0.014899299 0.09681253 -0.05293868 -0.058579244 0.047568377 0.084602095 -0.074083626 -0.08977945 -0.035159245 -0.032925338 -0.039407793 -0.0023969943 -0.19656159 -0.052628946
事故 0.021316595 0.20345572 0.018768536 0.0062439963 -0.2210577 -0.022665164 -0.1377592 0.055866875 -0.059680212 -0.04628709 -0.033048626 0.1349158 -0.03302852 -0.024750963 -0.09346853 0.1505888 0.008742946 -0.107172824 0.084216066 0.013982496 -0.10668481 0.13895668 0.17944509 -0.04436201 -0.08194636 -0.016216816 -0.08480688 -0.048029575 -0.0036555396 -0.16155049 0.12577106 0.08259947 -0.05617669 0.052479606 0.021021347 0.16811354 -0.039610725 0.043338563 -0.04055027 -0.03197668 0.09568657 0.10992024 0.13085245 -0.011047989 -0.035327606 0.020675203 -0.02314269 0.17046702 0.15100218 -0.049539372 0.041338213 0.024860937 -0.11692441 -0.011461859 0.15431418 -0.13014477 -0.085922614 0.13742073 0.20828119 -0.049845286 -0.00071919255 -0.08400063 0.04177809 0.18600407 0.07382975 -0.03604221 0.005276218 0.08112988 0.09715575 0.036871653 -0.08320957 -0.08450332 -0.08533852 0.15438867 -0.08063177 0.027462173 -0.03393113 0.13957918 0.12302456 0.2100855 0.032181237 0.017937057 -0.18044184 0.019355118 0.047301225 -0.18129441 0.035944626 -0.08899781 -0.043691024 0.0851693 0.1094456 -0.026072577 -0.059193395 0.12189721 -0.102674134 -0.15492964 -0.07327148 0.0009214825 -0.20404127 -0.11930923
名 -0.10560994 0.09955099 -0.056642476 0.10349606 -0.21786642 -0.17033559 -0.17624602 -0.014021866 0.116339855 -0.08387885 -0.089326724 -0.012615332 -0.07756788 0.09166444 0.011061846 -0.015188679 -0.121094495 -0.08713941 0.08209192 -0.02530998 -0.18520465 0.16262987 -0.042403433 -0.12546217 -0.16720732 0.021420361 -0.02352461 0.019986112 0.020495234 -0.18504634 0.015970914 -0.069772474 -0.11785169 -0.1308424 0.15434985 0.11298846 -0.11691444 0.06065857 0.027755212 -0.11431013 0.033690136 -0.11626843 -0.056857325 -0.01042526 0.1364593 -0.22095457 0.08811353 -0.02541333 0.093058065 -0.036655847 0.058295887 -0.011849612 -0.009205945 0.047120433 0.10647446 -0.00759669 0.043148562 0.03624844 0.21267535 0.0009298064 -0.14573717 0.061038435 -0.0296277 0.009349383 -0.11651144 0.14729042 0.01694302 -0.079119846 -0.10782637 -0.16296662 0.020722678 -0.002757458 0.09964652 0.03254849 -0.1073438 0.11119423 0.014177298 0.00939947 0.055036712 0.07333063 0.10043109 -0.14677326 -0.19918168 0.020000748 0.10581055 -0.19531323 0.0028097413 0.08258089 0.03260762 0.0073213023 -0.08058473 -0.0051164795 0.010809145 -0.12372846 0.10624066 -0.13536318 -0.07002848 -0.1670543 -0.071542 0.004493723
造成 -0.07798466 -0.0557616 0.085928865 0.06030542 0.027764257 -0.031816956 -0.00804899 -0.107105635 -0.12836748 -0.013362396 -0.059544638 -0.059671618 -0.14116062 0.13882475 -0.11276614 0.15115054 0.07164759 -0.10653599 -0.11076724 -0.08628358 -0.09619897 -0.0003125558 0.0628792 -0.13984248 -0.015409351 -0.10596539 0.15652943 0.010803184 -0.08245382 -0.14882211 0.17585059 0.10481162 -0.15238361 -0.085697465 0.04485992 0.121881165 -0.07156999 0.121965796 -0.04531889 -0.110451646 -0.12755756 0.0042738467 -0.07599034 -0.011547309 0.090258025 -0.014801912 -0.00357228 0.15328538 0.022341924 0.013823544 0.13176416 0.16225217 0.124631844 -0.035582595 -0.05467689 -0.07489314 0.12305682 0.1950222 0.18751013 -0.10593771 0.052312855 0.043337077 0.11560589 0.13281575 -0.1085113 0.09305862 0.10969905 0.05550116 -0.02622705 -0.11430321 0.01633773 -0.027114583 -0.019131565 0.13660315 0.019755723 0.120629266 0.050978035 0.10368048 -0.045279756 0.1656031 -0.08128791 -0.037951536 -0.16784975 -0.06119937 0.08699611 -0.14169851 0.036523182 -0.010631837 0.07667934 0.09355019 -0.08914761 0.03403832 0.043607555 -0.09547592 0.020024108 -0.13851146 0.15140517 -0.22412726 -0.12805259 -0.10621789
粮仓 -0.07648243 0.07052325 0.0800747 0.13827707 0.021978693 -0.0679055 0.04646051 -0.11475179 -0.009402123 -0.040338833 -0.036976982 0.0900841 -0.18912303 -0.0147584835 0.023645232 -0.085914835 0.0075243367 0.050812885 -0.032861575 0.06308342 -0.07991571 0.08139102 0.0026215203 -0.12965935 0.016354831 0.02844392 -0.0067036217 -0.04963662 -0.0668238 -0.0748164 0.20137313 0.081211634 -0.23071724 -0.010239168 0.023950435 -0.039647322 0.118421204 0.00876867 -0.20324679 0.038201924 -0.04498583 -0.07794461 -0.047150496 0.014191631 -0.0034187993 -0.16421604 0.12534378 0.04975998 0.023194727 -0.037258722 0.1626722 0.117971964 -0.081372775 -0.16380914 0.10846658 0.06625853 0.095246665 0.117539264 0.09409831 -0.0164696 -0.14790882 -0.02002598 0.14629322 0.03857719 -0.20450555 0.020600623 -0.11602657 0.07328924 -0.1412101 0.0605697 0.04012211 0.06263362 0.015031447 0.1639023 -0.024440482 -0.0712019 -0.12059365 0.107518844 0.028481275 0.118169904 0.10812657 -0.11317416 -0.15417877 -0.042877678 0.21824762 -0.076089546 0.12656105 -0.023490483 0.1603011 0.09112953 0.05256116 0.021348072 -0.09264075 -0.07561937 0.14438738 0.03144957 -0.09300157 -0.25282142 -0.1484569 0.026815768
仓库 -0.10772291 -0.047454197 0.019561088 0.14807497 0.04469432 -0.05705586 -0.0116001675 0.0018115155 -0.13143015 -0.063140504 0.104517534 0.1099047 -0.012386214 0.071217604 0.083987415 0.0052587967 -0.11418546 0.07179393 -0.0024015054 0.04994817 -0.13832156 0.065336876 -0.059874225 -0.27338868 -0.06771727 -0.14895199 0.16190328 -0.07534377 0.063808486 -0.28616902 -0.04846319 0.12808265 -0.13474818 -0.04347367 0.033972245 0.0006079313 0.09862016 -0.07348085 -0.15809274 0.0032484622 0.004118583 0.035465486 0.10427353 0.027140427 0.2340722 -0.029374968 0.0035227358 0.107983805 0.15555984 -0.034294046 0.0070479675 0.058929544 -0.12544969 -0.042006563 0.03863716 0.08196456 -0.0002809825 0.01777527 0.11840888 -0.1384647 0.038498346 0.0055712042 -0.023682576 0.063469194 0.048592925 0.11338581 0.102685034 0.08815405 -0.092476144 -0.12270745 -0.06577472 0.10938513 0.060506966 0.17077492 0.08397935 0.013485494 -0.018912494 -0.04139563 0.14690965 0.15023638 0.030371133 -0.14256531 -0.2271107 -0.029169949 0.120002344 -0.13763204 0.08689093 -0.06974231 0.024167063 -0.064422406 -0.06230903 -0.02060785 -0.11782631 -0.12259341 -0.048120886 -0.106722265 -0.029169038 -0.19640607 -0.09329265 0.037001453
分 0.1071561 0.17589909 -0.104527034 0.08400354 -0.18625419 -0.060892317 -0.13066858 -0.061280712 0.05278542 0.08763771 -0.074117094 -0.039348744 -0.19570525 0.074788705 0.011857039 -0.06144543 -0.022911778 0.12901232 -0.16046262 -0.047259584 -0.17056835 0.08544001 -0.06084238 -0.068653435 -0.14160715 0.03935642 0.069086246 0.030760584 -0.113815784 -0.2424527 0.1806262 -0.011439504 0.06200574 -0.083027214 0.19105671 -0.043332286 -0.018034149 0.10666822 -0.1802617 -0.11964358 -0.12850879 0.08179633 0.15407126 0.010751502 0.12107472 -0.14948553 -0.0571818 0.033708896 0.13587947 -0.07245478 0.08831864 0.031014955 0.0707299 0.021202268 -0.05825907 -0.04383248 -0.045726176 -0.026157528 0.18557392 0.07642106 -0.08838543 -0.14254954 -0.11201576 -0.050778203 -0.12309915 -0.075628 0.06957539 -0.10524767 -0.06511345 0.12302389 0.042086963 -0.06539978 -0.016455663 -0.031744678 0.08610466 0.15417983 0.03364757 0.12202159 0.08517521 0.097250395 -0.08762203 0.09785258 -0.098031856 -0.038346574 -0.009225686 -0.076290116 -0.12342919 0.031508405 0.06713191 -0.14052892 -0.05558819 0.07671212 0.1253232 -0.023784999 -0.045348383 0.087401226 -0.058821123 -0.050596077 -0.071022116 0.1395723
突然 -0.03744838 0.12444956 -0.010647587 0.027431061 -0.0045831804 0.020992534 -0.13796365 -0.025362633 0.11888096 -0.0474963 -0.10565722 -0.03395447 -0.10756286 0.14866543 -0.1448082 -0.020259826 -0.106217496 -0.09293781 -0.07487947 -0.0022605227 0.095279895 0.17242162 -0.048980143 -0.15055154 -0.033936374 0.0045930934 0.0006376305 -0.05034914 -0.11057061 -0.16834234 0.12140939 0.052996222 0.047543745 0.08620343 0.039151642 0.007986706 0.04562422 0.12721902 0.037813522 0.05916122 -0.15280133 0.0071596624 0.09959642 0.0012380292 0.1748206 -0.10870716 0.00059660326 0.120437235 0.14745916 0.041194543 0.2072015 0.15174839 -0.03529801 0.011981174 -0.064896576 0.005995987 0.12506865 0.14344703 0.110457376 -0.1673347 -0.06937171 -0.11994125 0.07740462 -0.023349281 -0.17500077 0.055311073 -0.00020038505 -0.11528452 -0.13489245 -0.11604495 0.008567748 0.08791321 0.068537965 0.13611108 0.071304604 -0.05100252 0.033639744 0.109499075 -0.038882155 0.14145799 0.11880896 0.050224725 -0.1861968 -0.052981738 0.13058104 -0.13450807 -0.14526576 -0.06215779 -0.11239674 -0.103114024 -0.013689127 -0.036542546 -0.06235461 0.016745396 0.059124403 -0.039684534 0.038735818 -0.20919757 -0.21640944 -0.11356982
小麦 0.11079158 0.02611572 -0.13853075 -0.052789122 0.06132535 -0.1299893 -0.14241448 -0.061895113 0.05435969 -0.058543764 -0.06992916 0.14239876 0.032694317 0.12644066 -0.16193856 -0.01351732 0.015165279 0.094716676 0.07946844 0.060116343 -0.026195293 0.14732881 0.035941906 -0.18990341 -0.14737515 0.08053995 0.051141392 0.06791512 -0.016896535 -0.010464351 0.017261479 0.0158524 -0.18484469 -0.13295892 0.16950122 0.05648594 -0.08234004 -0.06789836 0.020635406 -0.027016819 0.12698692 -0.10425876 -0.11454329 0.040992346 0.17832744 -0.09766422 0.108819865 0.16918644 0.17522706 -0.1591954 0.18261738 -0.0053832727 -0.054521907 -0.011568167 0.02718284 0.026310625 0.11947539 0.033110276 0.18770795 -0.0815125 -0.060867313 0.06745221 0.12502941 0.08469929 -0.17433901 -0.077796705 -0.07172435 -0.02459921 0.13390234 0.110999174 -0.036125172 -0.037995655 -0.10203633 0.11182151 -0.14779179 0.021626959 0.015615243 -0.01975056 0.082543544 -0.06103762 0.13428888 0.092011645 -0.008352392 -0.0762881 0.18101464 -0.089136966 -0.068444654 -0.063267 -0.08850469 -0.0659674 0.060585357 0.054576047 -0.09823766 -0.13931754 0.09395328 -0.031738035 -0.018011624 0.07293262 -0.17197375 -0.14666238
医院 -0.139866 0.023091234 -0.045457587 0.056528646 -0.23337114 0.00023647022 0.0035754994 0.030842932 -0.09776314 0.13895853 0.16607608 0.04895791 -0.079360396 0.0138332555 0.013998038 0.14363089 0.0907368 -0.046830658 -0.04862035 -0.04182215 -0.008715515 0.17672765 0.11109702 0.016651433 -0.11790954 -0.20135912 0.12705842 -0.07190954 -0.12016361 -0.14378583 0.050339475 0.00844428 -0.15489447 -0.17696005 0.041280728 -0.076401986 -0.025745217 -0.038426667 -0.113505736 0.020884294 0.024533642 0.011842406 0.013710242 -0.09157693 0.14079429 -0.2286579 0.006765129 -0.06582668 0.05922166 -0.029745482 0.03247953 -0.044249702 -0.14783198 -0.12842861 -0.034804985 0.10291435 -0.066486776 0.10405176 0.027306184 -0.02066253 0.060365334 -0.103011735 0.16631103 -0.044358283 0.059912477 0.06067311 0.060866706 -0.008438311 0.036655933 -0.18697973 -0.03217623 0.10015601 0.13866267 -0.114989676 -0.073271975 0.08496295 -0.13963403 -0.08726651 0.06313677 0.11846259 0.13934591 -0.1455183 -0.14369005 -0.030015504 -0.051355034 -0.00276494 -0.03008416 -0.029484933 0.067792654 0.1009001 -0.034867384 -0.069247946 -0.021388195 0.044671092 0.13146448 -0.20250997 0.029994665 -0.23155044 -0.16703531 -0.006243882
立即 0.075587936 0.20525199 0.04229476 -0.09472795 -0.14746574 -0.028074142 -0.023821041 0.069078736 0.10443478 -0.117276944 0.059288718 0.03242514 -0.16395827 -0.04708314 0.11012317 -0.033383444 -0.15368342 -0.11119096 0.08199238 -0.07531202 -0.11522474 -0.037537888 0.0015239273 0.029659485 -0.20180203 -0.024365008 -0.06467089 -0.03930828 -0.088266805 -0.16908698 0.07647261 0.05971369 -0.23599361 -0.14547746 -0.03332061 0.025757127 -0.09484937 0.14993356 -0.023966258 0.12450728 -0.1744884 0.07017898 0.059964586 0.022575377 0.1016565 -0.032693304 -0.030259797 -0.06490303 0.02974806 0.035120774 0.113678664 -0.07958747 0.030535929 -0.108839996 -0.10921255 -0.038870472 -0.019559864 0.22093324 0.19305325 -0.10056964 -0.049598858 -0.010290025 0.04365983 0.19150044 -0.13522874 0.1787214 -0.084093586 -0.014073494 0.04288484 0.10430656 -0.10631985 -0.106923565 0.034795057 0.04782835 -0.07570689 0.10460044 -0.056498915 0.21707422 -0.09031934 -0.0064437585 0.10980502 0.014498895 -0.0348235 0.038280252 0.1791395 0.0405121 0.13717458 0.16490598 0.10729928 0.012270164 0.018018644 -0.052226372 0.01878128 0.09459208 -0.07091944 -0.03985688 -0.095089294 -0.06556187 -0.07737935 0.037097935
救援 -0.055699132 0.11332046 0.105555244 -0.1111964 -0.20454913 -0.051633816 -0.046329774 -0.016385943 0.03975085 -0.13486159 0.11094479 0.03624353 0.033509854 -0.017404135 -0.03416842 -0.09324062 -0.018740093 0.14487693 -0.13513586 -0.06660372 -0.12725113 0.14025766 0.12581427 0.009275977 -0.17725685 -0.1704112 0.029162498 0.009638774 -0.124472454 -0.19743633 0.17255381 -0.02486947 0.06734635 0.06663918 0.1659801 0.07697927 0.10821529 -0.10080586 0.0014136798 -0.08461754 -0.16378747 -0.12108132 0.10036778 -0.057752557 0.12842767 -0.22963157 -0.08896817 -0.032775685 -0.0675188 -0.08216272 0.1100252 -0.09406108 0.12777378 0.10317542 -0.102072604 -0.04474558 0.067923486 0.11318826 -0.06050556 0.02989347 0.1288928 -0.056939073 0.014277674 -0.058062512 -0.15040885 0.17004663 -0.12084523 -0.020480528 -0.04681513 -0.08866714 -0.16667664 -0.13374354 -0.106505945 0.12659395 0.018027484 -0.03439647 0.1030979 -0.053540505 0.008661268 0.0408805 -0.025217306 -0.0069183847 -0.02480716 0.067852065 -0.05782171 -0.17389338 -0.102518335 0.016120413 -0.01974286 -0.014037633 -0.03808043 0.061972838 0.08840134 0.054089814 0.027457386 0.067957275 -0.040097006 -0.16452743 -0.1940605 -0.014656796

 0.048014417 0.044281155 0.08589363 0.14873843 -0.21887586 0.0764929 0.0509881 -0.07768475 0.11403715 -0.003801041 0.008654358 0.09490862 -0.20870695 0.14946806 0.10171897 0.07795418 0.0075205583 -0.11361661 0.053875692 0.10344262 -0.12468326 -0.05209027 0.10723026 -0.06581753 0.09131066 0.050921958 0.021637967 0.010995416 -0.17185697 -0.20574477 0.05183379 0.09369928 -0.08750762 -0.16757764 0.06146495 0.04881 -0.06801608 -0.026016315 0.051151775 0.0866621 0.09214626 -0.12540719 0.00011074414 0.030959493 0.12874493 -0.22786848 -0.011573018 0.013501731 0.19055136 -0.030630555 0.19606781 0.00015878389 -0.023640664 -0.05035476 0.032867063 0.09262455 0.10579404 0.13441333 -0.011538679 -0.037419755 -0.029402321 -0.048385434 0.10462249 0.16169462 -0.058918316 0.17992304 0.055179767 -0.031124778 -0.0023196463 -0.010475622 0.008625236 0.03064436 0.03962567 0.07817629 -0.0532439 0.050893936 0.049894728 0.08286679 0.078794084 -0.025309134 -0.059997104 -0.066216186 -0.15229847 0.08727826 0.20496605 -0.043553878 -0.09228496 -0.07477771 -0.05245785 0.13875598 0.008727935 0.06487337 0.040280603 -0.13604158 -0.12340839 -0.20069836 -0.10604117 -0.20037968 -0.078161046 0.080650605
受伤 -0.062403794 0.16776648 -0.09659989 -0.12788437 -0.17392685 0.08752984 -0.07686919 -0.004081883 0.0045675943 0.09971861 0.0834385 0.0069571617 0.064164944 -0.015412856 -0.12773809 0.09912273 -0.09523398 0.0511774 -0.12419272 -0.04109829 -0.18497144 0.2129102 -0.024822518 -0.17651016 -0.08425916 -0.09553049 0.15071756 0.1184663 -0.17405936 -0.110686876 -0.0035887382 0.15763487 0.07014147 -0.0046745446 0.017217873 0.03602804 -0.013524669 0.017213156 -0.058825348 -0.15938342 0.07024278 0.036718693 -0.056059394 0.011881072 0.11184426 -0.20095979 0.007977849 0.042998932 0.10167924 -0.045795374 0.06625363 0.15320216 -0.029949024 -0.09306375 -0.13828033 -0.088005066 -0.12593304 0.06139061 -0.041934907 -0.15475984 -0.09314664 -0.12238026 -0.0073102 -0.0020380705 -0.12787355 0.04518268 -0.10622727 0.025906809 -0.1580798 -0.11450843 -0.031336654 -0.1430853 0.11832873 0.12509754 -0.07391517 -0.07842876 0.047476284 0.06817545 -0.07259856 0.20892242 0.026225533 -0.09022642 -0.12859176 -0.0004772089 0.18602313 -0.059169848 -0.011998743 0.10992125 0.053613815 -0.08413108 -0.12336076 -0.0118345255 0.047895093 0.117426254 0.0105510475 -0.15976132 -0.05406164 -0.08245843 -0.028067144 0.06491011
车间 -0.09365283 0.10827031 -0.14364135 -0.096822746 -0.1531581 -0.07737591 0.025482403 0.020570518 0.13625337 0.031752013 0.12941019 0.13645887 -0.086408556 -0.12787245 0.104727924 -0.1056842 -0.07039409 0.11738056 0.07339498 0.05470308 -0.061674863 0.15322103 0.12809221 0.04807202 0.108247414 -0.1262125 -0.04057144 0.017160868 -0.14904413 -0.060242094 0.07284927 -0.0643397 -0.13988498 -0.043232094 0.11954134 -0.047242217 0.040444713 0.13940169 -0.072767675 0.012952141 -0.08736223 0.07204868 0.0523289 -0.07794735 0.00088694756 -0.14885499 -0.047669653 -0.020758452 0.06681742 0.012133886 0.09648403 -0.006479898 -0.030469552 -0.15758212 0.15646037 -0.092264466 -0.13022546 -0.057501074 0.18018056 0.08799838 0.028805306 -0.007956711 -0.035817947 0.1891326 0.048264787 0.045962147 0.032061983 -0.018133037 -0.14097823 0.019856878 -0.07728424 0.033522047 0.14313996 0.14255099 -0.06381097 -0.0012815165 0.07481719 -0.04483873 -0.041612957 0.1707795 -0.10671217 -0.021018518 -0.17229457 0.13131213 0.07006293 -0.17311522 0.13183743 0.030736204 0.04287898 -0.03713274 -0.14766747 0.13936377 -0.06794915 0.13387778 0.06394349 -0.18497553 -0.07126112 -0.06873174 -0.21004684 0.10121179
安全 0.052824553 0.027622988 0.026428023 0.125805 -0.1463797 -0.026368355 -0.09143951 -0.021435086 -0.030919518 0.10414118 0.13537255 -0.014079428 -0.16304152 0.0040385155 -0.03320986 0.1282786 0.027432121 0.085531786 -0.076909676 0.047056537 0.0874222 0.108871914 0.019239591 -0.07898761 0.025071347 0.06745609 0.15625833 0.07764491 -0.1640853 -0.0682108 0.15465243 -0.087137595 -0.1420137 -0.16479823 0.15969123 0.00494965 0.09961244 -0.044103745 0.06674029 -0.14401045 -0.0014315648 -0.010937248 -0.06125721 -0.10098559 0.15694056 -0.003412247 -0.1346347 0.013644043 -0.040151127 -0.18402082 -0.037561275 0.015612418 0.049661916 -0.14768855 0.11426425 -0.088650346 0.028493099 0.0020048686 0.10434298 -0.11786907 0.12134539 0.12387049 0.13453385 0.16154908 0.059402775 0.15436253 -0.12400036 0.019780537 -0.035384674 0.08616679 -0.019466633 -0.10698004 0.087323025 -0.05554107 0.09252247 0.09040972 0.06791647 0.15451929 -0.050535418 0.18124163 -0.013298475 -0.0828846 -0.030575702 0.14800142 0.16841266 0.010248327 -0.060907777 -0.041720353 0.14464283 -0.012138444 -0.09404644 0.074132346 0.09952541 0.023588633 0.13420469 -0.19247358 0.05799779 -0.20416299 0.011779599 -0.13956483
被困 0.006166818 0.11810246 -0.114265524 0.07367978 0.037658453 0.028004983 0.02208623 -0.091418296 0.01759242 0.06081101 0.08745229 -0.026113085 -0.04105772 -0.030953474 0.048734225 0.12759483 0.0401332 -0.063699216 -0.05992747 -0.08631005 -0.14788486 0.11095699 0.13559826 0.0020569114 0.014396246 -0.13578147 -0.064581804 -0.09814503 0.04324995 -0.2366605 0.14942718 0.0738298 -0.18858132 0.053287365 0.12353492 0.1482207 -0.025759857 -0.048691366 -0.052990515 -0.08485124 -0.0013044348 0.058150075 -0.035478722 0.12951113 0.04356489 -0.073040836 -0.08829661 -0.07002685 0.057801157 -0.1632654 0.020654991 0.15098177 0.102870405 0.030507809 -0.01076059 -0.1145427 0.066954434 0.19678402 0.18201603 0.09270863 -0.034537274 0.022121089 0.087625585 0.17094368 -0.14358208 0.13966952 0.0585461 0.12647593 -0.13538206 -0.16493067 -0.038658276 0.072000906 -0.0654707 -0.027814882 0.07073847 -0.029861378 0.016257776 0.1830907 -0.055709526 0.17513406 0.047674857 -0.11260665 -0.08887371 0.13667975 0.18505663 -0.15124999 -0.07631682 -0.110199034 0.07060875 0.10001188 -0.12234457 0.08709368 -0.11629676 0.097048335 0.009153768 -0.087584585 -0.03015036 -0.10373709 -0.027849862 -0.12794665
情况 0.026116518 0.06204259 -0.1513543 -0.018768238 -0.15565008 -0.09545287 -0.18554775 0.07688698 0.09000944 0.032745007 0.12165772 0.007709388 -0.12245237 0.05245496 0.08705022 0.06323857 -0.09184883 0.106501415 -0.16609207 -0.025528796 -0.13322738 -0.039815444 0.1837817 -0.17857821 -0.15833084 -0.12325028 0.04870628 -0.0010192309 0.03839483 -0.23196907 0.18984511 -0.020676157 -0.13604635 -0.12673149 0.040059544 -0.06320035 -0.061103135 -0.027218984 -0.18575351 -0.085785076 -0.13397285 -0.09883818 0.09507 -0.12025533 0.055497218 -0.03231871 0.028723877 0.10470928 0.0827728 0.020847296 0.10158432 -0.08332983 -0.07503205 0.061210815 -0.05610441 -0.10961114 0.08410072 0.14218976 0.1952732 -0.12903395 0.03477876 -0.017680494 -0.044392154 0.12126899 -0.038286474 -0.037386797 0.059832558 -0.030410822 -0.00956614 -0.09249056 -0.10955319 0.0029857457 0.08520504 -0.08846211 -0.10922052 0.026946634 -0.022615874 0.13996695 0.16260253 -0.029120075 0.062643595 -0.055474237 0.053742565 0.16031547 -0.01707587 -0.016710583 0.08100307 0.073551625 0.11376212 -0.08006586 -0.12375275 -0.08242379 -0.105907395 -0.08341658 -0.012541888 -0.104129784 0.11764964 -0.05434862 -0.18953118 -0.011503899
发现 -0.09701729 0.09523653 0.023074374 -0.0106840795 0.018289253 -0.04125711 0.042530853 -0.14375073 0.09528317 0.057874877 0.09442847 -0.035840675 -0.15942219 0.016373415 -0.17628048 0.1243203 -0.0075191697 -0.02381284 0.0067400374 0.008692121 -0.11903714 0.040559173 0.05862942 -0.13301097 -0.1218653 -0.16900429 0.16681477 -0.16758616 -0.13719565 -0.22560063 0.06940573 -0.077030055 -0.07585876 0.10577751 0.19552542 -0.026059957 0.07728018 -0.0870949 -0.06755956 -0.05146417 0.09975796 0.07328425 -0.0928823 -0.13726425 -0.025127038 -0.21239355 -0.05066711 0.017642014 0.0428601 -0.1950409 -0.011099566 0.17393702 0.011607823 0.011705013 0.021173617 -0.14479104 0.07805523 0.07340971 0.1975143 -0.08846074 0.01715637 0.10974922 0.028228132 -0.03596986 -0.049138505 0.00043452604 -0.037891597 0.11148664 0.08458096 -0.06436475 -0.0009538819 0.1322844 -0.11654864 0.15410858 -0.116762206 -0.06563144 0.062927246 -0.06278295 0.11442711 0.08224902 0.0516809 0.033941485 -0.02863418 0.046647 0.08146515 -0.064189926 0.024077259 0.15604304 -0.107749134 0.028552616 0.07432018 -0.11469508 -0.0002463541 0.10729335 -0.07994648 -0.005762505 0.089844726 -0.10633741 -0.23593274 -0.12888399
已 -0.031376958 0.031400014 -0.10147457 0.041120186 0.06136784 -0.006790385 -0.14155805 -0.15314275 0.011082722 -0.072236 -0.08546194 0.06055228 -0.07035618 0.026363326 -0.12883253 0.1110087 -0.06784776 -0.013858919 0.056318924 -0.011959166 0.09544175 0.0049105166 -0.06712424 -0.04984213 0.060755827 -0.08313522 -0.014530356 -0.15448838 -0.024244035 -0.10293491 0.14441536 0.1263223 0.04225554 0.10040079 0.11250623 0.13041294 0.13655715 0.133537 -0.17978227 -0.14195779 0.036297515 -0.027654741 0.055716515 0.0864735 0.19588457 -0.049543016 0.13523607 -0.021661347 0.07293853 -0.07841674 0.054469284 0.10883916 -0.03717563 -0.16197634 -0.10112454 -0.03413886 -0.04535876 -0.043771595 -0.05252021 -0.027725162 -0.024146166 0.1329401 -0.08602119 -0.03385037 -0.16840324 -0.0356923 -0.07829913 0.015149156 -0.13057484 -0.035250932 -0.13744688 0.06034711 -0.1307605 0.110874854 -0.1353099 0.12379197 0.090555266 0.1637762 0.1635839 0.20583548 -0.08790279 -0.031960532 -0.032495167 0.15934032 -0.015334014 -0.15736988 0.10298219 0.12462617 0.07936859 -0.03133194 0.104119934 0.14636432 -0.033289123 0.12918548 -0.05067829 -0.1809367 -0.018596984 -0.166019 -0.16655794 0.0004042697
导致 0.077348955 0.10771698 -0.11658363 0.13172075 -0.15889151 -0.014007635 -0.038626656 0.0062620225 0.026127534 0.043503698 0.058240216 0.054602932 -0.06043637 0.005012734 -0.14520541 0.07722601 -0.0065590753 0.11626947 -0.09039429 -0.12193139 0.04700171 -0.035521835 -0.0868419 -0.114585616 -0.16202557 -0.1508993 -0.044934884 -0.14799902 -0.103988625 -0.1958454 0.163313 0.0490159 0.07814958 -0.011510987 0.07271777 0.15982267 -0.092844635 -0.078394465 0.08739429 -0.07337717 0.12049226 -0.019319547 -0.08958958 -0.060327668 0.016330138 -0.15420917 0.05016176 0.052121542 0.009088002 -0.14790328 0.13517447 0.11729493 -0.13757093 -0.011177597 0.086449176 0.096213296 -0.053164285 0.19294848 -0.0781751 0.064443074 -0.060049642 0.0048980108 0.08307958 0.14306481 0.018746905 0.15341948 0.13469665 0.09152766 -0.12549064 0.074777946 -0.17045254 0.057739668 0.027543813 0.10823873 0.054536015 0.083469 0.10755766 0.15224656 0.16536924 0.1372704 0.14539024 -0.17398399 0.023289133 0.15301003 0.013642019 0.02043961 -0.11457123 -0.10947128 -0.04498194 0.011917547 0.089494474 0.09420702 0.117005065 -0.09377432 0.028648324 0.010934579 0.053411122 -0.026498744 -0.16081066 -0.025507178
爆炸 0.013978212 -0.05409249 -0.065741226 -0.11005777 -0.09931044 0.0069539305 -0.13703005 -0.15431562 0.050190486 0.12551469 0.12991233 0.07887912 0.014026643 0.1111835 0.095932975 0.09506396 0.015373461 0.11805375 -0.07747113 -0.08874536 -0.04371691 0.015038464 0.16355419 -0.12092451 0.025882538 -0.18290624 -0.018189862 -0.084727064 -0.092283 -0.12581027 -0.036776092 0.06349011 -0.15524544 0.012387695 0.13340224 -0.04577845 -0.06597903 -0.08481649 -0.07344546 -0.008823157 -0.000719614 0.11012256 -0.08768497 0.030523224 0.014070602 -0.12813255 0.05469174 0.014861742 0.07622844 -0.17018977 0.12262908 0.086344 -0.11054119 -0.12990764 -0.069112696 0.0641823 -0.10155694 0.055731077 0.19653496 0.0885048 -0.08729145 0.12652051 0.13469242 0.17939128 -0.09100407 -0.09804407 0.0572666 0.15395866 -0.053506456 -0.16115741 -0.17716548 0.08716959 0.064503916 0.07065631 -0.00818791 0.105997875 0.13760686 -0.06672386 -0.084441535 0.059869718 0.1389573 -0.012388534 -0.09064201 0.07842655 0.2155605 0.04845955 0.034419373 0.0060717287 0.1086242 -0.018918168 0.019118968 -0.0500985 -0.016204903 -0.041664477 -0.11779457 -0.06454337 0.083757095 -0.1981981 -0.1735212 -0.13934526
坍塌 -0.13323134 -0.03671305 0.08842028 0.11126895 -0.023346957 -0.070074156 0.053114053 -0.0799606 -0.009991298 -0.086538605 0.14224459 -0.032444414 -0.18679515 0.091063894 -0.14462797 -0.04597625 -0.09223252 0.07022864 0.08859629 -0.059756555 0.041629285 0.08281538 0.10534839 -0.0063161007 0.038295694 -0.2051305 0.11449525 -0.15847792 -0.1930902 0.01533364 0.16207291 -0.04240492 -0.13546093 -0.12666582 0.028456813 0.13829827 0.08269534 -0.06615229 -0.02848725 0.03609989 0.008125851 -0.043818522 -0.1179193 0.06244362 -0.06974952 0.037863236 -0.016401699 -0.02455568 0.060492635 0.07646084 0.25109562 0.078049 -0.058133796 0.066703185 -0.08341652 -0.10892755 0.06901388 0.083024204 0.01910907 -0.18742946 0.12259579 0.15226966 0.013454592 -0.041899096 -0.022913756 0.18500236 -0.061618052 -0.0025571277 -0.1549316 0.045999806 -0.17069326 0.04401643 -0.004387423 -0.034821406 -0.1378404 -0.038972884 -0.10668232 0.010540917 0.086069584 0.11777538 0.03955481 -0.07198541 -0.17033695 0.014423895 -0.036223106 -0.0821561 -0.13651639 0.036839932 -0.059174404 0.1535743 -0.04367195 0.13038045 -0.12947781 0.07334431 -0.095387235 -0.12207846 0.08893321 -0.12707941 -0.15216461 -0.13465112
掩埋 -0.15317497 0.027205527 0.11818823 -0.12826355 -0.15609458 -0.19691455 0.09299106 -0.022060124 -0.11008199 0.08050897 0.097873315 0.0603566 -0.08781667 0.15736572 0.024988933 0.09543512 -0.022464814 -0.0402321 -0.14510264 0.120830625 0.055935383 0.041974965 0.18829907 0.037640195 -0.16107936 -0.13679674 0.1511459 0.06229753 0.06280106 -0.089202 0.07814541 0.15112859 -0.17395835 -0.08732294 -0.085173264 0.031516038 -0.10705421 0.18615516 0.06240663 -0.100224726 0.08080484 -0.15760502 -0.0021044263 -0.12764914 0.07015071 -0.07534155 -0.02909458 -0.059518337 0.1734637 -0.1983445 0.21004699 -0.07912316 0.0029147307 -0.056618515 -0.11427118 -0.08968223 0.013944167 0.184264 0.03432354 0.026690643 0.12605177 0.10604702 0.09988885 -0.008932409 -0.16131963 0.13267936 -0.10424294 0.054034095 0.0906892 0.0625268 0.09492378 0.05216841 -0.007892549 -0.107286565 -0.0049193404 -0.025967788 -0.034378484 -0.03230668 -0.04699929 -0.024306238 -0.07691392 -0.10637715 -0.068003885 0.020231329 0.11554419 -0.053520467 -0.03855685 -0.0477901 -0.009014668 0.10015286 0.054640476 -0.12177867 0.0703417 -0.12814121 -0.0013707863 0.10048253 0.009673478 0.040132467 0.002003497 -0.13844895
工作人员 0.114759624 -0.0048105163 -0.081225805 0.07447413 -0.0003947932 -0.16633232 -0.05523472 -0.114443414 0.115814224 -0.04816275 0.13215135 0.09521962 -0.05129582 0.11163737 -0.103363566 -0.10025392 -0.15998395 -0.06858723 -0.090383716 -0.11228492 -0.11515451 0.11544289 -0.0851312 -0.12696452 -0.08405401 -0.20611823 0.09513718 0.06530298 -0.17179619 -0.035660174 0.1724283 0.07067846 -0.045208935 -0.1310888 0.048601117 0.13274524 0.016853888 0.13963969 -0.08852915 -0.017331691 0.0385568 0.008056277 0.10827982 0.14258362 0.1959283 -0.08375623 -0.054292712 0.04638611 0.18606119 -0.11985199 0.14122088 0.16778511 -0.13084456 -0.038158946 0.090093896 0.093189456 -0.09831504 0.1183806 -0.017674914 0.03699034 -0.028541548 0.14430927 0.050322726 0.083060406 0.06346601 0.057002768 -0.055770136 0.13823187 0.008067755 0.005410472 -0.108845815 0.103910126 -0.046316497 0.05493094 0.07595182 0.004631844 -0.0669969 0.06211672 0.09608093 -0.024767837 -0.094469585 -0.020120826 -0.18989411 0.077904984 0.13359228 -0.0954965 -0.14229065 -0.030748833 0.007424013 -0.07290297 -0.14719051 0.13292636 -0.08555215 -0.041018978 -0.10748432 0.0054427297 0.13745289 -0.12563622 -0.031919766 0.035160873
埋 -0.14663951 0.09626335 0.13517997 -0.059617013 -0.21195406 -0.048237197 0.035358306 -0.111604095 0.09321811 0.022649115 -0.0020048658 0.013874213 -0.09352961 -0.09128653 -0.02838238 0.020571658 0.03757738 0.16602856 0.07767942 0.11832161 0.08015335 0.14006667 0.13565233 -0.05627134 0.035194535 -0.021479765 -0.09371577 -0.13496354 -0.007950486 0.013993216 0.16522686 -0.15665047 -0.022777798 -0.06084467 0.19759935 0.08012803 0.0074381055 -0.06591118 -0.07961031 0.025407199 -0.094731405 -0.026716366 -0.12823856 -0.13697502 0.20808302 0.066730805 -0.058183335 0.09934902 -0.07066427 -0.019435156 0.014452207 0.048782103 -0.05358665 0.04207729 0.11416128 0.15787657 -0.13439709 -0.06018786 0.12218753 0.037951674 -0.1693477 0.07106256 -0.056719624 0.10054988 0.08493281 0.079001814 0.10892133 -0.07563282 -0.15031397 0.040969048 -0.1033936 0.15068246 0.1102068 -0.08796088 0.16283064 0.085395075 0.02889332 -0.031532567 0.075701416 -0.068542674 -0.0034175979 0.04747896 -0.19764234 -0.1295688 0.17064753 -0.01974234 0.089614026 0.12574516 -0.062358286 -0.118958175 0.105308235 -0.045556 0.060329694 -0.08943225 -0.122333586 0.004107676 0.025357958 -0.16509674 -0.15777315 0.04397865
浸出 0.08906038 0.21042082 -0.036582094 -0.059476588 -0.21750467 -0.06546352 -0.11457099 0.050957453 0.006833248 -0.10740757 0.174734 0.11783866 -0.11430141 -0.12220238 -0.10972297 0.10693231 -0.09276818 0.026920721 -0.09190133 0.0678826 0.043643825 -0.07365069 0.046014704 -0.17712246 0.07667984 -0.03779873 0.1606271 -0.09243622 -0.15589526 -0.17813316 -0.0027248552 -0.03923975 -0.07657139 0.082789086 0.027140863 0.09478698 -0.14488108 0.023238301 -0.04054735 -0.06785601 -0.06591439 -0.118623555 0.14735834 -0.04152833 -0.08920809 -0.04419809 -0.13670532 0.115675084 0.1598958 0.04054335 0.011240373 0.13926272 -0.053626258 -0.13100742 0.10472138 -0.080166094 0.07621163 0.14870463 -0.09553457 0.11380523 -0.0637645 -0.042444617 0.11245791 0.08992136 -0.03219102 0.069043994 0.0450778 -0.0025692668 -0.01952565 -0.058142122 -0.033801563 0.017054673 -0.111557834 -0.019051975 -0.13532768 0.13899837 -0.053940035 0.028083676 -0.059027337 0.19102961 0.10631289 -0.09588204 0.056085724 -0.061772183 0.15347587 -0.0137891425 -0.033683345 -0.07165371 -0.08493264 -0.09131169 -0.06403176 -0.051821347 0.08019766 0.01155081 0.12579414 -0.19619216 -0.081495136 -0.027156191 -0.23442496 -0.026338497
约 -0.027082719 0.009431884 -0.12391417 -0.058754854 -0.040642668 0.04502213 -0.020536328 -0.14282334 -0.014606132 -0.09811108 -0.1264723 -0.023034923 0.037408363 0.012045053 -0.018513376 -0.06779207 -0.11783696 0.051100314 -0.03902415 0.012714199 -0.1601352 0.060300335 0.10660722 0.04464727 0.032185342 -0.23077343 0.10207858 -0.16540387 0.031561546 -0.14693531 -0.028900582 0.0073863063 -0.10039774 0.071421735 0.17771202 0.2084657 -0.019984774 0.13076709 0.061908226 0.052741878 0.09654297 -0.10679524 -0.091024935 0.033913225 0.09980629 -0.12964319 -0.00032579206 0.024937157 0.12773651 0.051377602 -0.055563726 0.14359643 -0.12617795 -0.08979665 -0.056758273 -0.099924825 -0.085670725 0.0061072567 -0.083568394 0.077151224 0.065370254 -0.10185559 0.17906706 0.05080118 -0.12248942 0.10847285 -0.06021108 0.007234521 -0.1036827 -0.16143638 0.070235714 -0.029484238 0.09452146 -0.058853358 0.10928829 0.014604208 0.06109456 -0.003118531 0.07566677 0.16665478 -0.09653587 -0.09896621 -0.18761937 0.16558614 0.14726439 -0.12089889 -0.1454956 -0.03614529 0.08277592 -0.03513634 -0.042333376 -0.109208316 -0.047354996 0.048433144 0.13320567 -0.15640603 0.093156695 -0.24544849 0.038849276 -0.10444149
粮囤 0.008402195 -0.026718723 -0.07878425 0.15572016 0.047724232 -0.040460892 -0.18441786 -0.067640685 0.114224926 -0.00840459 0.103394605 0.047074806 -0.09451359 0.10426936 -0.008599815 -0.023756988 0.054139666 0.100688554 -0.028956251 0.0958132 0.10813787 0.022156607 -0.06353977 -0.18618467 -0.030413046 -0.116258144 0.17862006 -0.1781936 0.09644662 -0.03649979 -0.10329935 -0.15046182 0.09917952 0.087522395 0.06893276 0.007254992 -0.10452929 0.09369839 0.11408579 -0.073399 -0.16307501 -0.055482596 0.1455561 -0.01616826 -0.018268578 -0.074493855 -0.15805203 -0.0365886 0.15658216 -0.12918484 0.18966223 -0.07968963 0.046634603 0.07792096 0.06965685 -0.044756997 -0.12643017 -0.0075358553 0.10554126 -0.11459541 0.07116164 0.14481698 0.14222702 0.088306956 0.003150458 0.19930123 -0.13750705 -0.032782275 0.06946169 0.074456625 -0.082699485 0.1719487 0.08652541 0.04998128 -0.12632802 0.14249662 0.09418978 -0.02685558 0.093441226 0.0022557003 0.0067632333 0.008132399 0.10562273 0.018549055 -0.09225952 -0.0994185 -0.111456476 -0.0039479653 -0.006109168 -0.02799942 0.054308824 -0.13045804 0.059602585 0.05409197 -0.05388048 0.025340639 0.17981693 -0.019882066 -0.22474672 0.13953815
储粮 -0.060129665 0.18701671 -0.023015399 0.08678911 -0.12658219 -0.1252544 0.0057279915 -0.16808711 0.063692816 0.069181666 0.040802304 0.07788859 -0.01275655 0.082882866 -0.010606103 0.15682678 0.049488798 0.0021810755 -0.06512919 0.08581111 -0.06727767 0.11637216 0.010443773 -0.07096398 0.075697035 0.0795215 0.16057214 -0.09538845 -0.17998022 -0.18573588 0.009074396 -0.06266936 -0.1637095 0.001025239 0.17375225 0.17394604 -0.040405624 0.11115175 -0.17622572 -0.13848019 0.012292065 -0.08232199 0.008883656 -0.018304212 0.07093384 0.0073354477 -0.058204494 -0.094542384 0.023015868 0.053747978 0.12902048 0.13456158 -0.12442714 -0.08392558 -0.06429143 0.10130447 0.015520665 0.105705395 -0.070285544 -0.13625254 0.112633295 -0.08415436 0.0060991286 0.18313572 -0.15997125 0.09428164 0.05903319 -0.10343835 0.057899375 0.052741665 -0.17066374 0.022293981 -0.046327826 -0.062458217 0.089262284 -0.040022787 0.07660007 0.077098794 0.13773128 0.17145687 0.01751093 -0.08927907 0.031235186 0.056190923 0.15977764 0.020553276 -0.049942076 0.14758503 0.0133997565 0.029331522 -0.07435469 -0.11219795 -0.15696344 -0.0052135796 -0.13989331 -0.0758138 -0.12229057 -0.14763157 -0.1313852 0.06588669
粮 0.10804182 -0.0954305 0.007454946 0.017093249 -0.14927626 -0.15166157 0.012689599 -0.19922137 -0.10637321 -0.10260581 0.1339013 -0.084467985 -0.203075 0.10134982 -0.07290349 -0.057693016 -0.07566285 0.16697004 -0.03212554 0.19041236 -0.029358894 -0.005169394 0.027346944 -0.036554012 -0.1692589 -0.16469707 0.0028445323 0.12186119 0.111958265 -0.051925365 0.11377049 0.05553515 -0.026634714 0.02832813 -0.043616712 -0.13016635 -0.08073331 -0.11079078 -0.2242249 0.030883608 -0.1061843 0.15715818 0.11883421 0.010862763 -0.11541799 -0.019523378 -0.026960205 0.017558383 0.23254587 -0.01821775 0.06852486 0.0551227 -0.1647663 0.13682427 0.12651327 0.018153442 -0.082485184 0.089959025 0.041254237 -0.105806924 0.07533236 0.11199084 -0.0058865417 -0.0072313314 -0.061591048 -0.102114335 0.0398687 -0.00858427 0.069403544 -0.14694828 -0.022234855 0.049727634 0.11945409 0.091102265 0.01853455 -0.074582204 -0.065793574 0.13333723 0.064993024 0.12036568 -0.047422227 -0.05833767 0.028471107 0.15758564 -0.016641796 -0.23666374 -0.13159433 0.13557605 -0.017270476 0.009390435 -0.018525237 -0.04344889 0.07097966 -0.08845138 -0.040626515 0.109411605 0.088162445 0.026568672 0.038410418 0.09083521
清理 -0.13268761 -0.075543016 -0.14816146 0.040470555 -0.07714765 -0.074951634 -0.06260065 -0.1628556 0.11903658 0.10082862 0.051061552 0.10743486 -0.11506841 -0.08198614 0.0040090038 -0.079174586 -0.1758101 0.019707674 -0.035238534 0.055502124 -0.14346689 0.15838611 -0.048681106 0.028595362 0.06288437 -0.105257034 -0.002499321 -0.02134364 -0.12375442 -0.032981984 -0.078635626 0.02207875 0.013287829 0.10465676 -0.005908962 -0.031446967 0.013994596 0.11945721 -0.060773615 -0.11800397 -0.09848336 -0.0022444709 0.1405807 0.08403724 0.07468135 -0.033320945 -0.01927699 0.010478674 0.16389392 0.04369395 0.18997599 0.08707897 -0.13786286 0.040322226 0.13144565 0.011191367 -0.03752748 0.18735665 0.17018527 0.010769662 -0.12037381 -0.12520896 -0.07858099 0.08395051 -0.10172088 0.17363743 -0.01456162 -0.12813246 -0.080203116 -0.010865342 -0.17324565 0.11606535 0.06295778 0.052772447 0.12603499 0.12385076 -0.11364327 0.11132989 0.05657995 0.030571135 0.055674303 -0.029261382 -0.19359325 0.12030922 0.20879528 0.0467064 -0.05944848 -0.10275625 -0.09459427 -0.0442299 0.11524324 -0.0036241747 0.09618532 0.071189225 0.14058402 -0.15415521 -0.049755797 -0.1209956 -0.11738315 -0.112318344
高 -0.10403773 0.025345946 -0.10439539 -0.0874637 -0.030307231 -0.15568256 0.052467626 0.07234761 -0.0057690907 0.14640547 0.14514482 -0.003927244 -0.08408792 -0.105105765 -0.16329081 -0.12017091 0.0064984984 -0.060361043 0.04361641 0.023565358 -0.012122521 -0.05944979 0.11707074 -0.17825776 -0.036686737 -0.078944735 0.029736115 -0.14346404 -0.08192646 -0.17770676 0.0030219222 -0.0017145092 -0.16630863 -0.06926997 0.18408522 -0.009160451 -0.012404811 0.1339584 -0.03088901 0.07979435 -0.096253335 -0.078987755 0.039303448 0.00705292 0.049583904 -0.1142073 -0.052725587 0.16900536 0.07694514 -0.18285516 0.16354823 -0.10623673 -0.03893628 -0.0050334223 0.12887196 0.1377449 -0.082694955 0.011823907 0.16985057 -0.038756713 -0.09005495 -0.09951402 0.12247409 0.15515518 -0.035947688 -0.0840926 0.09580316 0.017032346 0.06576712 -0.17110686 0.020416286 -0.08248344 -0.036634725 0.025986645 -0.07120847 0.13347432 -0.0795489 -0.06782254 0.13827613 -0.0072093024 -0.009675067 -0.1617823 -0.10584516 0.15444957 0.012971515 -0.17979248 0.14063205 -0.05145502 -0.06531287 -0.11173668 0.006472251 0.059686225 -0.04781436 0.052701287 -0.04593118 -0.069020174 0.13446008 -0.21400161 0.064691894 -0.13205668
报警 -0.07439932 0.15235806 -0.093400195 -0.015107971 -0.15751371 0.07944641 -0.015955469 0.04243031 0.114974484 -0.11957478 -0.03783703 0.044496227 -0.022434346 0.019063385 -0.039794385 -0.08945776 -0.10622817 0.064823925 -0.054578096 0.13005255 -0.036628686 -0.04479015 0.090091094 -0.1953422 0.042391334 0.065274134 0.041246418 -0.07709832 -0.049953345 -0.21606202 0.1907192 -0.11203401 -0.11636473 0.0017153003 0.12486401 -0.08250528 -0.11393499 0.17838407 -0.19628367 -0.06267283 -0.13974576 -0.15594721 -0.092284195 -0.017738288 -0.024700062 -0.17581551 0.1465558 -0.05371642 0.107247666 0.07041341 0.14906777 -0.09377753 -0.14529972 -0.14645039 0.10958389 0.07080808 -0.077528395 0.11803617 0.00094569084 0.026594056 -0.08035265 0.058011774 -0.059427764 0.047987282 -0.16303118 -0.054227713 0.004217301 0.12669727 0.056727666 0.030082943 0.08614995 -0.00889689 0.010394986 -0.052731544 -0.07162228 -0.09336432 0.13287447 0.1374678 0.16468702 0.17757678 0.040888067 -0.107135005 0.08727193 -0.049876478 0.00010896686 0.07822876 -0.07159416 -0.070199676 0.031066658 0.07978638 0.1229541 0.051885497 0.0019650278 -0.041471515 0.09317752 -0.14675908 -0.097752534 -0.18681465 -0.015348548 -0.07377552
救出 0.054797553 -0.029078117 -0.1123944 0.09310834 0.091257714 0.10596768 -0.15419504 -0.050643902 0.12697116 0.09394471 -0.081841856 0.15203089 0.0063321223 -0.026542129 0.033552863 0.07140853 -0.121156685 -0.109168746 -0.15929723 0.16415401 0.019151928 0.027609887 0.07780062 -0.21590915 -0.17521991 0.027919391 0.003469374 -0.13289106 0.1102663 -0.091141604 -0.075028196 0.0060042874 -0.007460956 -0.06614666 0.009341012 -0.06332259 -0.14194606 0.10816808 0.07487326 -0.059173755 -0.14638405 0.03737895 -0.0060765524 -0.07542531 0.1513447 0.014648933 0.007480881 -0.08437094 0.20886779 -0.19209474 -0.064476795 -0.0582316 -0.00921154 -0.04552455 0.10643099 -0.093074076 -0.07376883 -0.024345774 -0.028880592 -0.06781389 -0.11135369 0.084507175 -0.07918425 0.18249023 -0.119464 0.18520199 0.009383136 -0.04716263 -0.15337749 0.017995568 0.10710417 0.120655306 -0.05746535 -0.039677262 -0.007013609 -0.098766625 0.030444762 -0.033988502 0.036906157 0.027267579 -0.0774432 -0.034332212 -0.12592761 0.05195779 0.18502782 0.026363712 0.1361341 0.16034697 -0.05212325 0.14481944 -0.10011477 -0.13622512 0.111962005 0.12570323 0.13775866 0.06265022 -0.09304478 -0.074532546 -0.16643181 0.011403274
存放 -0.109926835 -0.06321668 -0.14274885 0.1025781 -0.20839193 -0.1509447 -0.12715875 0.105734214 -0.024187496 0.10251276 -0.006134653 -0.12323117 -0.04172201 -0.094227396 0.04948171 0.052687965 -0.10334037 -0.060169984 0.089671895 0.13404259 0.064954564 -0.015164448 0.07616252 0.042627897 0.037065476 -0.17404932 -0.001052852 0.02577881 0.0022644373 -0.1454495 0.12544464 -0.051717304 -0.1997358 0.008894867 0.039484106 0.07395304 0.11567546 0.09786891 -0.15616874 -0.022389933 0.042691026 -0.1539167 -0.110317566 0.008213496 0.058921043 -0.16500421 -0.06697549 0.12958331 0.20172292 -0.04120469 0.120036975 -0.09634442 0.007717718 0.0351849 0.116626404 -0.09799916 -0.10304791 0.18585485 0.16512926 0.093985945 -0.09566884 -0.017365186 0.04188625 0.091519736 -0.0066210004 -0.018105833 -0.061015278 -0.076637566 0.05016742 0.019918324 0.009362342 -0.11054577 0.01535952 0.02964139 -0.05811088 0.104902394 -0.09937145 -0.070591874 -0.026298137 0.094762556 -0.0745965 -0.04857475 -0.18581153 0.029492186 0.18684094 -0.18174626 -0.037317283 -0.040633556 0.05909089 0.12051134 0.062494792 0.02871704 0.07198711 0.06728659 0.092520185 0.055841327 -0.0077680238 -0.1925024 -0.22204931 -0.08328248
抢救 0.027239623 -0.0352534 0.1371949 -0.10748656 -0.13365668 -0.19660951 -0.023095826 0.04889101 0.043419298 0.09754535 -0.006022423 -0.10538534 0.034631487 -0.0406027 0.025031097 -0.015240969 -0.13952465 -0.13193819 -0.058559738 -0.122448005 -0.15366094 -0.044692468 0.08701006 0.04555307 0.07038354 -0.11898999 -0.0016040222 0.03111075 0.108412795 -0.1450808 0.13708314 0.0017160325 -0.17063965 -0.07306229 -0.103079334 0.033926744 -0.03303843 0.033753447 0.06748663 -0.047213454 -0.0025291704 -0.078659855 -0.084441386 -0.084467836 0.1042497 -0.1876851 0.024085645 -0.09638321 0.16918693 0.05301436 0.20406237 0.11815112 -0.033538066 -0.06412531 0.15212731 -0.07617584 -0.0052602226 -0.083072126 0.17245221 0.08288687 -0.08594811 -0.047343813 0.0021896358 0.13936095 -0.068725586 0.08066957 0.013680958 0.1655117 0.14303736 -0.1676257 -0.06946766 -0.02109329 0.13406284 -0.13427149 -0.16209023 -0.040275462 0.022959087 0.081140846 -0.004382724 0.14954023 -0.13268295 -0.1135671 0.042035755 0.11965056 0.038707487 -0.071314886 -0.1443453 -0.023484403 -0.05324038 0.082657926 -0.09669071 0.14233202 -0.1404224 0.096004106 0.042211354 -0.0767224 0.10136457 -0.19336005 0.046045613 0.08936611
倒塌 -0.10659411 0.16096187 0.10044267 -0.10406309 -0.15437168 -0.01223155 -0.13216758 -0.049769968 -0.06779891 0.12687206 0.06164964 0.098189995 -0.14242794 0.14754966 -0.1098473 0.039684087 0.07327051 0.02813509 0.004793486 0.12988779 -0.17079014 -0.046874292 -0.030549819 -0.21433058 -0.07825085 -0.13711467 0.11557567 0.1101793 -0.17241964 -0.1385407 0.021100212 0.019986987 -0.09009037 -0.086534604 0.14842935 -0.05285121 -0.017139845 -0.10663281 -0.18018807 -0.085669376 0.049894262 -0.15953788 0.09920919 0.11545599 0.18547231 -0.02825906 0.082360715 -0.005784929 -0.024564655 -0.09333184 -0.07010707 0.15577017 -0.06242862 -0.13702741 -0.0031723413 0.07014515 -0.07953159 0.024644168 0.11267239 0.0387283 -0.08984285 0.13014862 0.07132523 -0.07901013 0.093425795 0.09761305 -0.016097445 0.13856702 0.04562441 -0.013328114 -0.011981966 -0.12387531 0.111333445 0.094651036 -0.133182 0.033905566 0.059830755 0.08607173 -0.09715659 0.09410785 0.14454791 -0.11701292 -0.03753719 0.106408805 -0.0008331305 -0.12259135 -0.13572772 -0.11901142 -0.009005086 0.13721435 0.0018911822 0.08546613 -0.12854727 -0.058684785 0.12949784 -0.0312743 -0.096375205 0.00080163375 -0.00828602 -0.06903052
事发 -0.14843197 -0.016249431 -0.014060952 -0.07234829 -0.18686329 -0.068207674 -0.13763075 0.0536909 -0.10199403 -0.107027605 -0.008616758 0.06340845 -0.059844576 0.14824536 -0.027559923 0.01286532 -0.17367932 0.14925742 0.0046118004 -0.06866635 -0.010835403 0.093303345 0.011654749 -0.004716518 -0.09101406 -0.13062763 0.10851127 0.07941326 -0.03258443 -0.19149669 0.17262748 -0.045313075 -0.14200929 -0.08418994 0.22396553 0.11742544 -0.052019484 -0.026386138 0.05599478 0.09742099 0.0678495 -0.07804816 -0.053382494 0.11834763 0.080370404 -0.11358527 -0.106813766 0.14864531 0.14180814 -0.015993146 0.03338403 -0.0373044 0.06787278 0.106396936 0.0022489936 0.07181709 0.122297436 0.17990224 -0.061939932 -0.022882696 0.047548283 -0.022620019 0.117112994 0.19913463 -0.15702899 0.013248161 0.035128485 -0.033548463 -0.14189017 -0.116179265 -0.19504899 0.0128821125 0.08986004 0.086987436 -0.07890108 -0.006525836 -0.09515719 0.16559468 0.09544282 0.02693886 0.011157557 -0.18672499 -0.055442292 -0.009960419 0.09316942 -0.030502118 0.044873044 -0.13145846 -0.01458175 -0.093110666 0.010836515 -0.10810373 -0.031255435 -0.035520274 0.04947178 -0.019542132 0.08974329 -0.13618393 -0.2305351 0.002801449
消防 0.050562873 0.10111928 -0.062603876 -0.0777421 -0.04009845 -0.07873119 -0.04932824 -0.05361421 0.0044507296 -0.01590581 0.17532666 -0.07659473 -0.07351433 0.039384447 -0.053312115 0.10597049 -0.099025294 -0.10468235 -0.072665855 -0.010662903 0.055688772 0.10702157 0.018312054 0.06690092 -0.015709987 -0.054764602 0.03288464 0.06657961 -0.083478734 -0.18472981 0.19960134 0.118850484 -0.024112023 0.0024322493 0.012668836 0.09618663 0.09781007 0.03900745 -0.18272404 -0.1185267 -0.1841434 -0.08955754 0.10800794 0.012699081 -0.019269004 0.014520878 -0.12421904 0.18742922 -0.010797435 -0.17996666 0.18894841 0.07537792 -0.012828238 -0.1090702 0.10148438 0.11479847 -0.15132745 0.026399005 -0.090168275 0.07169375 0.047733944 0.1307229 0.045428693 -0.0017994203 -0.20117566 -0.025048895 0.09771538 -0.031576283 0.07299992 0.057510167 0.08793144 0.060780223 0.023751503 0.12672558 -0.12976025 0.027841294 -0.09662159 0.045960374 -0.10843594 0.14584595 0.16240202 -0.014298196 -0.14962722 -0.05146165 0.13867038 -0.12817597 -0.10270514 -0.06832184 -0.13638891 -0.055673726 -0.12552652 -0.12852351 -0.10383535 -0.08878007 0.10765693 -0.0915913 -0.098727584 0.043233525 -0.2401807 0.030092066
器 0.011650921 0.14723352 0.048343778 -0.14404891 -0.03422688 -0.11888499 -0.14631025 0.032907773 0.09899262 0.07157219 0.15585913 -0.12988788 0.021601712 -0.14622726 0.03308573 -0.056059845 0.014416964 -0.11359652 0.016516296 0.025070475 -0.14477585 0.13087265 -0.022121973 -0.07865321 0.109407626 0.053197294 0.1302716 0.13751177 0.124167755 -0.21508083 0.02502289 -0.023756564 -0.10400205 -0.09674432 0.026874676 -0.035909273 0.056837957 -0.0445199 0.04421467 -0.13393871 -0.036175214 0.028072217 -0.03408802 0.056564387 0.08196077 0.030540975 -0.115720384 0.13580404 -0.08700433 0.08813855 0.20730704 -0.09711645 0.07386526 -0.08883685 -0.005883814 0.035309996 -0.011536641 0.0007748237 -0.07165191 0.08243951 -0.09130269 -0.07274766 -0.09917342 0.1608257 -0.042083524 -0.07042068 -0.019727208 -0.012506711 0.12447529 0.10522896 0.005249337 0.11936981 -0.03804103 0.07828651 -0.10927747 0.05293653 -0.1498897 0.0393907 -0.02934317 0.17723797 0.10758063 -0.1657896 -0.0809371 -0.10942045 0.08689983 0.083981566 -0.14995514 0.0755219 0.15816836 0.120068304 -0.084814005 -0.12664098 -0.09484629 0.08805945 -0.098972976 -0.19105573 0.15004757 -0.19409615 -0.100874774 0.051148668
库 -0.020285936 0.12401931 0.07141887 -0.09837121 0.057998482 -0.08339896 -0.07504553 0.055298325 -0.065311 0.098532766 -0.050257824 0.0127141625 -0.17833783 -0.038682364 0.079140805 0.028098974 0.13963011 0.121173754 -0.02692367 0.03230229 -0.15536948 -0.011779153 0.019899236 -0.12072061 0.08402341 0.023934692 -0.030884689 0.14126568 0.061272636 -0.003156824 0.03382041 -0.03857742 -0.1118606 -0.14363338 0.027818037 -0.04974013 -0.123862304 0.02899899 0.09987035 0.03259936 0.07764847 -0.18168269 0.034687042 -0.11977978 -0.09029234 -0.18778785 0.0055948417 0.09979686 0.17196153 0.009774487 0.18616521 -0.103861876 -0.05760942 -0.18379776 0.031052338 0.16615461 0.017346842 0.030348822 -0.027845278 -0.15053037 -0.15017575 -0.05390266 0.1420549 -0.10089844 -0.17767964 -0.07172564 0.020162825 0.12838379 0.09091974 -0.013797638 -0.12743977 -0.049165778 -0.021298818 -0.020921774 -0.08978979 0.10896684 -0.086250156 -0.027243542 -0.0408601 0.10423012 0.10429189 -0.18070541 -0.1146344 -0.10600002 0.09492227 -0.19375776 0.09868855 0.103656925 -0.1524711 0.06580043 -0.116016194 0.008965962 -0.08938742 0.08517688 0.027025174 -0.062086284 -0.043921743 0.024714142 -0.24733977 -0.092391945
输送机 -0.12876917 0.108804874 0.12888418 0.033714138 0.07042159 -0.03533184 -0.039492186 0.008151093 0.007838667 0.11446171 -0.106391415 -0.072484195 -0.18919644 -0.12842114 -0.069607824 0.10808083 -0.1533415 0.13864872 0.07646002 0.064982004 -0.042898286 0.18288597 0.07508065 -0.10537593 0.075683504 -0.017924637 0.15131794 0.0074456744 -0.018348033 -0.19852364 -0.06832999 0.08165703 0.07593738 0.112778075 0.18386322 0.14061163 -0.087272756 0.14181852 -0.15142868 0.012425975 0.057536352 0.08839976 -0.06818615 -0.03222025 -0.00692089 -0.095167406 0.09486214 0.10456704 0.13109022 -0.00022168414 0.116187744 -0.066620104 0.017046057 0.070830055 0.00036772722 -0.1060502 0.01494685 0.039136626 0.11644548 -0.071325384 -0.013484715 -0.11487437 0.14494638 0.17817271 0.030018084 0.058308903 -0.025879707 -0.07740371 -0.04679122 -0.004028252 0.0005568701 -0.07416766 0.0897329 -0.068839826 -0.13711596 0.18514177 -0.14340839 -0.072628066 -0.058799006 0.12649731 -0.12241757 0.07439489 0.011079509 -0.019762855 0.17170003 -0.039323166 0.112101324 0.010407621 0.06676513 0.12100988 -0.12027913 -0.05012366 0.07263434 -0.078989804 0.12949389 -0.11108162 0.033007514 -0.23114464 -0.13725615 0.10466364
分许 0.11854138 0.07479243 -0.09278585 -0.047859084 -0.18286392 -0.10604156 -0.1670519 -0.06738584 -0.08530274 0.07861681 -0.060321975 0.15399887 -0.15454449 0.15086848 0.12126545 -0.07152779 -0.01971695 -0.13042966 0.09169624 0.06164063 0.07308012 0.043852 0.13438216 -0.19461483 -0.08423156 -0.081180856 -0.04886096 -0.1378847 -0.041756943 -0.1527215 0.15253325 -0.06004623 -0.099645324 -0.14645158 0.19269066 -0.03989813 -0.048097044 -0.112527035 0.023595156 0.01912797 -0.056647025 0.021461051 0.07032953 0.103980914 -0.0687649 -0.0059794015 -0.07752641 -0.11676022 -0.035984036 -0.12090219 -0.0011377775 -0.07362096 0.12615907 -0.042966098 -0.08147985 0.036254074 -0.036108293 0.059219785 -0.124233894 -0.053425986 -0.090460666 -0.10227733 0.121971145 0.106168196 -0.16964304 -0.0054261745 -0.039137587 -0.033181675 0.067600735 -0.058723174 -0.12794013 0.0105972225 0.007846634 -0.027462501 0.11291672 0.12578213 -0.11581394 0.1176581 0.10000736 -0.031231185 0.14531045 -0.08273959 0.075110875 -0.07572144 -0.03198609 -0.004493837 -0.16423006 0.076080635 0.1256773 -0.13539746 -0.06842699 0.11265255 0.151405 0.004940557 -0.13189308 0.103937194 0.08198529 -0.11538569 -0.17524469 0.101729825
囤 -0.04735238 0.11359069 -0.10937338 0.09219913 -0.014801565 -0.13884942 -0.11172837 -0.10248438 -0.11118043 -0.146937 -0.012649611 -0.07952201 -0.016649665 -0.049892694 0.013306883 -0.11738363 0.112524316 -0.10320307 -0.15996885 0.12076249 -0.17265467 0.04527488 0.16765979 -0.21404478 -0.1797539 -0.11810623 0.07119996 -0.10582247 -0.16883548 0.041312303 -0.07124279 0.09724844 -0.024129279 -0.18016525 0.0924259 0.19839297 -0.03788244 0.14039403 -0.07973901 0.03227004 0.11769809 0.0049392763 0.06946724 -0.13007787 0.06324755 -0.123162545 -0.13870548 0.09164656 0.03423471 -0.04044681 -0.05071917 0.005589871 -0.14931081 -0.06118268 -0.1074066 -0.07311191 -0.14822595 0.104762785 0.21493392 -0.059043348 -0.086906865 0.13432923 0.056693163 0.06761042 0.017815616 0.18519308 -0.08559868 0.043789133 -0.010190934 0.008548511 -0.114912465 0.0006226925 0.15410402 0.008649538 -0.1277082 0.04317612 -0.08000339 0.13765784 0.012665727 0.17088114 0.05458974 -0.06400743 -0.041124243 0.102711305 -0.020080397 -0.1299034 -0.02347356 -0.0279039 0.07872676 0.053409964 0.021398468 -0.06239227 0.063251995 -0.079726055 -0.08344474 0.08291642 -0.044040397 0.016562846 0.013807013 -0.008324836
处置 -0.06847447 -0.0119161215 0.11804061 0.01729251 -0.17465422 -0.050443336 0.008224698 -0.15353827 -0.012721753 -0.008075011 0.02739734 -0.07928738 -0.20364691 0.08319525 0.031381927 -0.088798724 0.01876049 -0.01870382 0.028444683 0.032210473 0.07723162 -0.07170624 0.15777187 -0.103456266 -0.111010954 -0.012263477 0.03782001 0.04349489 -0.10142339 -0.18586998 0.19347887 -0.13656637 -0.005268871 0.044675853 0.17115547 0.13138703 0.12137941 0.027352365 -0.043144405 -0.04635876 -0.15518253 -0.14623131 -0.017743004 0.13857344 0.18616499 -0.073925674 -0.12178037 -0.081638835 -0.09310053 -0.09939084 0.16973308 0.14612406 0.11341037 0.05128365 -0.11385381 0.073403895 -0.110707946 -0.061586086 -0.060124923 0.045056764 -0.12102246 -0.018557988 -0.03954456 0.1468587 -0.0893467 0.06372204 -0.048437294 -0.11231706 -0.0881803 -0.043520752 0.037026186 -0.04486168 -0.12184797 -0.09779247 0.019130476 0.17452131 0.073034056 -0.05566197 0.1640879 0.18685354 0.007022504 -0.18825552 0.08946416 0.056689963 0.11537811 0.01725969 0.043563984 0.009831322 0.09290067 0.10331644 -0.08563388 0.08918871 -0.08902768 -0.05986239 -0.08346116 0.036936987 -0.034233235 -0.15723297 -0.14005469 -0.094328806
未 -0.12500958 0.07762381 0.03028646 -0.0801604 0.0033467582 -0.1894247 -0.07184269 -0.09840999 -0.0873748 0.08742454 0.012923451 0.11164215 -0.07912925 -0.023132674 0.027373234 0.1433527 -0.08841189 0.15385175 -0.12549993 0.14517748 -0.03501953 0.1894781 0.09033236 -0.09031474 0.014287559 -0.110782154 0.13954225 -0.08911137 -0.10932716 -0.22744985 0.15848117 0.11475642 -0.060240094 0.053662047 0.03491777 -0.03932573 0.13294384 -0.09194128 0.02486829 -0.072213046 -0.0930647 -0.055625964 0.06627915 -0.03584608 0.18032089 -0.18325624 0.10291954 -0.001683698 -0.058048487 -0.19437744 0.09155143 -0.054657154 0.04315091 -0.06569794 -0.0008434515 0.07050538 -0.13038291 -0.019404627 0.010485639 -0.022962855 0.06243999 -0.0017664201 0.041264053 0.071207196 -0.04418322 0.0022494495 0.09258728 0.1309883 -0.0878347 -0.1673843 -0.14965737 0.0122010205 0.084101 0.0044392757 0.10075563 0.100235194 -0.10474526 0.100693464 -0.04496742 0.15656953 0.046930958 -0.16333607 -0.038964994 0.16116546 0.11069963 -0.10921606 -0.09178957 -0.01946585 0.12278831 -0.0018550684 -0.046461303 0.14023773 -0.14489907 -0.044286616 0.04190908 -0.14753324 -0.019336404 -0.17503066 -0.05150312 -0.074885234
施工 0.04785603 0.06699617 -0.037438307 0.16047107 0.03390688 -0.16629885 -0.016277216 0.04338406 -0.015032117 -0.05884613 -0.03776227 -0.046680197 0.05748518 0.13412881 -0.14517298 -0.025472851 0.11757176 0.025359768 -0.14339335 -0.08283822 -0.044050183 0.19138701 0.08878823 -0.16300012 0.009479068 -0.12258472 0.18163528 -0.06986157 0.0077967416 -0.11607567 0.092466906 -0.06391543 0.03157764 -0.035545655 0.12455351 0.05195405 -0.066074945 0.0589285 -0.1758882 -0.014107398 0.008300943 0.026007336 -0.018066155 0.09185173 0.15327628 -0.04436783 0.08436276 0.16724263 0.04120543 -0.17922524 0.08502044 0.04777419 -0.1368081 -0.042624705 0.09957727 -0.042182613 -0.12018285 0.054431282 0.19908315 -0.045124114 0.118267134 -0.013553703 -0.09766388 0.13262469 -0.1846148 0.075574055 -0.082082056 -0.115939364 0.051370796 -0.026566094 -0.07455874 -0.03508531 -0.027753728 0.03083217 -0.13824172 0.031346317 -0.09325784 -0.082658276 0.16253634 0.1907808 0.075893514 0.071203694 0.058352333 0.09595442 0.10050505 -0.19161695 -0.040177044 0.089873075 0.09645111 0.0015505841 -0.12943976 0.0077693947 0.08823849 0.03850943 -0.03141135 -0.1374841 -0.07876673 -0.13807759 -0.1745848 -0.15507331
粮油 -0.11246765 0.10489518 0.039319303 0.13743456 0.1125489 -0.103819944 0.12571588 0.016783152 0.1301302 -0.14720985 0.03891172 -0.025853943 0.10350296 -0.10860341 0.089351706 -0.12729011 -0.10316754 -0.0064299228 -0.07423668 0.12038569 0.08047567 -0.07331647 -0.10894542 -0.21115921 -0.12779397 -0.121656425 0.070459925 -0.0884331 0.0068382807 -0.10430465 -0.084250756 -0.017951006 -0.07656376 0.0016976594 0.17254461 -0.0040255385 -0.0859322 0.0726812 -0.1293504 0.05678488 -0.140716 -0.038559783 0.13621293 0.015197348 0.04895707 0.091763906 0.09527536 0.08805918 -0.12813026 0.12482151 -0.037083983 0.018677494 -0.05014865 0.024472132 -0.089579456 0.110792235 -0.07202413 0.23642723 -0.03450638 -0.027953753 -0.07414563 0.05647301 -0.11910447 0.01275021 -0.19897927 0.12952475 0.09436417 -0.0124535775 -0.15902944 0.13052997 0.04472576 -0.14552468 0.023365004 0.16188172 -0.05137552 -0.032904662 -0.086456686 -0.1421945 0.14472803 -0.071419306 0.15994923 0.044202067 0.047017116 -0.14330395 -0.018592717 -0.04648547 0.045312572 -0.056357365 0.13829334 0.08196037 0.009454932 0.13376237 -0.09021021 0.036410116 0.06996933 -0.099569164 0.16915351 0.10036703 -0.021281425 0.089482725
致死 0.15546767 -0.054580864 0.0012609141 0.00016074856 0.09823213 -0.067007944 0.11245391 -0.18991297 0.10413854 0.087383054 0.16981176 -0.011867178 0.0925159 0.04313139 0.057196155 0.005203235 -0.17431374 -0.118846714 -0.18439499 0.08926491 -0.078867786 0.12968564 0.035486635 0.12026998 -0.092459574 -0.101056404 0.053272936 0.002639981 -0.092199445 0.082876295 -0.039195735 -0.13478841 -0.025488341 0.019652981 -0.11034386 -0.06803154 -0.11362433 -0.12600242 -0.12497981 0.12825392 -0.09835613 -0.15512492 0.08861549 0.016080758 0.018237077 -0.045644015 -0.10275953 -0.10153348 0.16269816 -0.06079159 0.20908242 -0.06867273 0.045974154 0.04651018 -0.034887098 0.12831657 -0.104369834 0.20474201 -0.026902728 0.15229411 -0.0017358547 -0.13711189 0.09892844 -0.089964196 -0.155217 0.012051298 -0.15148105 0.010221366 0.14347912 0.024184275 -0.035082616 -0.12699743 0.17995004 -0.13114825 0.12409783 -0.077270485 0.09569348 -0.107315935 -0.0032324323 0.026952693 -0.08273151 0.049077317 -0.14568692 -0.12132444 -0.033988375 0.05280982 0.12184477 -0.026008315 0.045736205 0.050952043 -0.08808016 -0.009990646 0.049572337 -0.0052335965 -0.040571913 -0.13496041 0.09092638 -0.13883 -0.05913235 -0.018021539
坠落 -0.0859716 0.07596659 -0.11184367 0.023271466 -0.18927415 -0.03744589 -0.14337844 -0.055678733 -0.10581284 0.14111719 0.10172386 -0.0043445644 -0.16523674 -0.07089996 0.058675203 -0.017728686 -0.02940228 0.14485297 0.0778377 0.044143666 0.026377117 0.16064061 0.17439832 -0.20567705 -0.022411156 -0.13194326 -0.10336906 0.10253446 -0.04751617 -0.13781163 -0.0072542815 0.1484626 -0.1842513 -0.1273067 -0.064721055 0.04131279 0.08569402 0.10092362 -0.1383981 0.051991984 -0.1455273 0.0057726013 0.010014668 -0.07952225 -0.034904577 -0.14852804 -0.055054124 0.18448575 -0.046682086 -0.07265009 0.047417983 0.1574095 -0.06685682 -0.10119232 -0.11275378 0.048700307 -0.009033737 0.20368516 0.15070271 0.029745227 -0.030730141 -0.039775304 -0.08624707 -0.040813673 -0.04414188 0.004449593 0.11554966 0.04385034 -0.041648444 -0.086595565 0.07080458 -0.11697923 0.09094917 0.07556105 -0.03722805 0.06413183 0.11602729 0.12091199 0.07022654 0.10415797 0.049339462 0.0731771 -0.0031481415 0.073273785 0.042612154 0.038481336 0.10952028 -0.11208535 0.026800418 0.053930186 0.117678 0.123937026 0.023765823 -0.040425878 -0.07236778 -0.1647648 0.15200038 -0.18412158 -0.04100527 -0.15386984
救治 -0.060319707 0.14058442 -0.024956485 0.12206635 0.037095748 -0.12912682 0.057163313 0.1269742 -0.045175474 -0.011761513 -0.07236337 0.13034001 0.09136305 -0.10742521 0.13079956 0.013486216 -0.1368504 0.10165191 0.032536734 0.14903815 -0.18585934 0.051278856 0.15891972 -0.0653489 -0.1728698 -0.09606307 0.15163153 -0.15793838 -0.15152748 -0.1084059 0.13872407 -0.05067929 -0.048430778 -0.04289446 0.14946312 0.003092621 0.010328403 -0.010996599 -0.12822247 -0.12599504 -0.03372524 -0.16623797 0.014732432 0.11817409 -0.08754746 -0.1032726 0.109491974 0.07237387 0.065721974 -0.1811777 0.12173073 -0.023206934 -0.10385678 -0.113619275 0.045859996 -0.056783125 -0.10176459 0.03864715 0.11293905 -0.14694543 0.0935471 0.12425361 -0.058591403 0.03748723 -0.08345419 0.13963008 0.083428584 -0.042859133 0.014785174 0.075027354 0.04134117 0.054271236 0.15561065 0.0030757475 -0.1496308 0.046137717 0.063342236 -0.10904536 -0.04335605 0.028305782 0.11127859 -0.0021264197 -0.15711403 0.059016988 -0.0549763 -0.08290091 0.12060646 0.037210166 0.11415697 -0.11149675 -0.034494676 -0.100506455 -0.086315475 0.012252406 -0.025348 -0.15786682 -0.041357655 -0.19983616 0.023079427 -0.11637472
送往 0.026466202 0.0331823 -0.021391954 0.13946567 -0.15064968 -0.009888722 -0.12828693 0.116595596 0.06978036 0.0902169 -0.09394228 -0.102988735 -0.068462186 -0.045764543 0.005426206 -0.053531222 -0.06982204 -0.10035334 -0.042075016 -0.06818224 -0.03871091 -0.04661308 0.0454662 -0.17572331 -0.15242508 -0.20253228 -0.057611264 -0.0999892 -0.0018536205 -0.16007322 -0.091690645 0.027393224 -0.014811782 -0.15214969 0.07035213 0.1530155 -0.03750483 0.17842786 -0.0027931836 0.14320746 -0.07303088 -0.10302429 -0.0043233093 -0.07502119 0.16747355 -0.022733822 0.119994126 0.12718019 0.0472979 -0.05165312 0.08206858 -0.11522657 0.099645935 -0.10662761 0.16548699 -0.016294986 0.14230277 0.06438512 -0.08015766 -0.15785047 0.11749251 -0.0064006676 0.16099487 0.0733172 0.051729716 -0.06473675 -0.024267465 0.15051258 -0.040357776 -0.124448895 0.09356547 0.09923732 -0.06804517 -0.019999124 -0.03102217 0.17997302 0.007630138 -0.01195347 -0.10004109 0.14889385 0.16395414 0.052726753 -0.07038668 0.027601313 -0.03685701 -0.19900437 -0.14334738 0.15713006 0.07815401 0.11230884 -0.007590736 0.04766659 -0.08822922 -0.07788007 0.14084578 0.024340857 0.076226346 -0.17249744 -0.051779974 0.01669125
输粮 0.093791686 0.108062 -0.029216383 -0.05684742 -0.09229125 -0.03617525 -0.16098924 -0.079345696 -0.037327256 -0.021679709 -0.11332525 -0.13823578 -0.071091406 -0.021321177 0.11373961 0.14682609 -0.16824058 -0.04812205 -0.15242153 0.04542999 -0.17669407 0.048371013 -0.04374398 0.07991439 0.041033186 -0.010809317 -0.06935939 0.14760382 -0.046566058 0.051218078 0.028490206 -0.1532277 0.034673285 -0.13675784 0.068088695 -0.06444293 -0.039323695 -0.04633655 0.009570064 0.08031822 0.14596948 -0.17230308 -0.099772096 0.12334487 0.16592689 -0.046521828 -0.09591058 -0.06806301 0.032363094 -0.1036526 0.12016486 -0.014327523 0.0677429 0.006153189 0.0072173267 -0.1425248 -0.099173956 0.08330811 -0.07158381 0.120390095 -0.1467479 0.15960494 -0.04940275 -0.0081125125 0.0944727 0.085159 -0.033626903 -0.041564852 0.115709424 -0.13530287 -0.17486331 -0.08703751 0.13089831 0.16606675 0.003495297 0.13657355 0.04759192 -0.019154258 -0.08071621 0.18367882 0.08791271 0.10773205 -0.10146911 0.00033457336 -0.098252855 -0.14714172 -0.05235132 -0.11142024 0.055383753 0.0934787 0.028283084 -0.05880868 0.01510148 0.07455935 0.10485182 -0.09624103 0.07913315 -0.21684141 -0.19748512 0.052349113
m 0.054358695 0.12972835 -0.16444644 0.06259915 0.07094962 -0.18646869 -0.16376111 -0.08947368 -0.056907337 -0.015921686 -0.1163684 0.06751865 0.046443045 0.022087073 0.041180313 0.177099 -0.026911167 -0.050665576 -0.09939786 -0.09845681 -0.10372633 0.15130685 0.024491297 0.09240447 0.10419123 -0.046484318 -0.080210574 0.15549055 -0.052065127 -0.21180663 -0.11585859 -0.07593629 0.033038553 0.035674926 0.07713997 0.07006758 -0.16604716 0.05818548 -0.09898082 -0.022529365 0.0031482356 -0.0044475337 -0.03719148 0.15994917 -0.008120914 -0.21978858 -0.035983544 0.13299589 0.12515928 -0.03342958 0.14393365 -0.00023582453 -0.022282116 -0.1112684 -0.06587092 0.012008414 -0.03911115 -0.055354796 0.16796662 0.0013962376 -0.048559178 0.007938183 0.109374434 -0.0075455164 0.13311651 0.12215914 -0.0055146106 0.0048663197 -0.080174595 -0.116815366 0.059910476 0.049499616 -0.12363074 -0.01569567 -0.11608995 0.16808765 0.018619858 0.10072338 -0.10655198 0.05801545 0.1713354 -0.11422825 0.0740526 -0.03168694 0.08337332 -0.18080403 0.018380687 -0.08652931 -0.020618971 0.14452751 -0.16577716 -0.070602834 0.07480986 -0.12541914 -0.07000564 -0.21385351 -0.11438598 0.049505226 -0.053476598 -0.09252009
致使 -0.018948354 0.14783005 0.106556654 0.02880346 -0.11536757 -0.15402156 0.099068 0.08614095 0.14240472 -0.029995466 -0.0601879 0.052535955 -0.033645436 -0.0024434144 0.049424894 0.023383943 0.083022766 -0.045531906 -0.10499205 0.15068276 -0.1721329 -0.00014377563 0.17483692 0.026209857 -0.039902207 -0.11877779 -0.061315343 0.041485373 -0.10639619 -0.16508114 -0.039522424 -0.02820238 -0.078151755 -0.0122672375 0.15596257 0.1629588 0.15290865 -0.014971678 -0.09812481 0.10335064 0.030692505 -0.11272505 -0.086169176 -0.041424498 0.18123372 -0.0756169 0.11137539 0.10261473 -0.082441375 -0.07994317 0.11154354 -0.0766216 0.09914138 0.13180828 0.13945495 0.014002493 -0.033326205 0.034944046 -0.04989105 -0.112266146 0.043327916 -0.0681112 0.15003133 -0.086172424 0.109304816 -0.0740759 0.05464599 -0.061502893 0.10982722 -0.096059516 -0.16885841 0.14428566 0.07757252 0.070989005 -0.033476647 -0.006367575 0.1165499 -0.04335299 0.045218542 0.07888112 -0.124782585 -0.169592 -0.09934448 0.14945886 0.1892079 0.0038973554 0.13028856 -0.14910126 -0.03424185 -0.15111445 0.010777922 0.11547017 0.09730099 -0.002849734 0.049206454 -0.07106475 0.14512707 0.082937606 -0.0750359 -0.16150871
赶到 -0.1567922 0.045304094 -0.14513531 -0.10558749 0.03555225 0.086737685 -0.124558 -0.113598146 -0.045956627 0.1472784 -0.056286443 -0.14733283 -0.1254173 -0.021693708 -0.02116961 0.08408751 -0.041945018 0.054571804 0.11563683 0.01204545 -0.05874281 0.13661778 0.09512236 -0.1681877 -0.0011988725 -0.16797929 0.123057835 0.049368273 0.057066426 -0.20354287 0.16440335 0.10965185 -0.007508919 -0.17325951 1.7680248e-05 -0.04511255 -0.0811074 0.16290814 -0.10910783 0.089769565 -0.13677324 -0.14568932 -0.014069059 0.04194665 0.18275613 -0.23017277 0.14798307 -0.022525666 -0.018097233 -0.14205214 -0.008963139 0.007964636 0.037233625 -0.1273123 -0.08706865 -0.05447001 0.013632564 0.1563125 0.18464491 -0.17105773 -0.1322579 0.055540618 0.085975535 0.17095257 -0.045500293 -0.083525285 -0.14611267 -0.03993774 0.012358156 0.022434955 -0.10918149 0.0024850345 0.11957338 -0.05272347 -0.07801049 0.040799152 -0.02451391 0.09993408 0.069368534 -0.07573338 0.10803644 -0.010168245 -0.034635745 0.021236774 -0.00585999 -0.022997335 -0.024648352 -0.04848881 0.01824678 0.16223544 -0.0518243 0.021594523 0.042959504 -0.014372301 0.14196834 -0.073485985 0.129421 -0.033284653 -0.099071965 -0.043685555
地面 -0.14684007 -0.008150058 0.03198163 0.1601526 -0.1838289 0.07162512 0.111737676 -0.075763084 0.12800229 -0.049936574 0.08109896 0.031719174 -0.17190751 -0.1303422 -0.016374942 0.1571625 -0.047369935 -0.050188806 0.060765054 -0.04308703 0.05859447 0.010750361 -0.09309338 -0.1834707 -0.03365224 -0.08175824 0.036673408 0.06724185 0.034142356 0.050161414 -0.05906174 0.13306457 -0.04208375 0.10354987 0.09422462 0.11500364 -0.033938225 0.008264723 0.040911302 0.073941104 0.12987134 -0.0015539292 -0.0061726235 0.11341862 0.19099572 0.008116267 0.098424934 0.1694542 0.19558594 0.013249667 0.12969735 0.13571861 -0.10662693 -0.0026815624 0.015563846 0.1128074 -0.07778005 -0.0016205756 0.11941918 -0.0906177 -0.034594692 0.1475556 0.13803273 -0.011355412 -0.02378239 -0.04278544 -0.047696605 -0.020127473 0.03647464 0.04608499 -0.14587025 0.02475934 -0.14527045 -0.115192376 0.07627819 0.06119651 0.13799743 0.1975048 0.056231577 0.14884585 0.11802407 -0.10308305 -0.1224847 -0.0053643305 0.1810848 -0.08438665 -0.12675445 0.066853516 -0.12544203 -0.124437496 0.12455467 0.034021307 -0.008084472 -0.05367841 -0.13662717 -0.046913832 0.13317151 -0.12645474 -0.06400384 -0.13481024
埋压 -0.14281769 -0.10085798 -0.1083316 -0.09624173 0.044150308 -0.1285792 0.08466463 0.07351538 0.0033850186 0.084738925 0.049227647 -0.04843061 -0.16225533 0.023366548 -0.08748911 -0.026965592 0.0033831447 0.15162085 -0.039337162 -0.05509238 -0.18194048 0.17929491 0.08774014 -0.16167139 -0.16375795 -0.031008903 -0.10838919 -0.14556073 -0.1541881 -0.22869943 0.09151287 0.13060474 0.025862545 -0.15674926 0.09546196 0.060467333 0.123532504 -0.016406922 0.013529175 -0.13016123 -0.17040554 -0.04448956 -0.015307055 0.15365565 0.1733763 0.07885498 0.07657789 0.1585029 -0.028547376 -0.0027594492 0.15841258 0.04956246 0.035146773 0.0091186585 -0.10791734 0.007885921 -0.045942947 0.07138121 0.031231675 0.12521496 -0.13286594 0.12578991 -0.123551674 0.10742003 -0.064590596 0.031178743 0.022933839 -0.07100119 -0.13175283 -0.10490594 -0.12701306 0.14861302 -0.12405457 0.008959358 -0.0925934 0.16650395 -0.13281964 -0.038357493 -0.10516073 0.11405178 -0.09121607 -0.031134306 0.057835877 0.03146052 -0.10231335 -0.08145038 0.022127075 -0.123855464 0.015440547 0.1630552 -0.012219453 -0.00902635 0.009728034 0.017005844 -0.033838097 -0.07333085 0.015363772 -0.09511959 -0.018215714 -0.023800986
火灾 0.019309327 0.17352457 -0.001846115 0.059388295 0.11412261 0.08832242 0.047867566 0.08566405 0.039564896 0.08119967 0.13373466 -0.09064977 -0.034701783 -0.0039156047 0.12884343 0.049406976 0.07235782 0.1246981 0.066068694 -0.06820166 -0.004831374 0.019281 0.16442628 -0.18463631 0.085042275 -0.18764904 0.18981624 0.043042034 0.008637859 -0.19946362 -0.08435292 -0.13266999 0.08923567 -0.004596794 -0.015678536 0.07354756 -0.06138979 -0.002432936 -0.13191755 -0.08466416 0.09545653 0.1184791 0.15272602 -0.14345312 0.11882327 -0.094500385 0.054234065 0.030985288 -0.052863494 0.029246125 0.04859628 0.13969788 0.09491577 0.12824851 -0.039099727 -0.08365046 -0.14079121 0.13227002 0.0011421775 0.13935801 -0.023202067 0.06020872 -0.09127173 0.1577977 -0.12554066 0.010332976 0.08440578 -0.13753735 -0.154389 0.030559164 -0.07450449 0.15512176 -0.025678787 -0.05800005 0.11128341 0.13376574 -0.03128987 0.07768864 0.1164157 0.003690693 0.01753242 -0.040375125 0.079318576 -0.097359635 0.04537206 -0.1889245 -0.068794444 -0.14521408 -0.036753017 -0.08148536 -0.16380984 -0.020346444 -0.15646197 -0.013024416 0.008556131 -0.1173834 0.0933228 -0.16346051 -0.11437045 -0.021180985
窒息 0.041352145 0.10651437 -0.10781717 -0.12358895 -0.072508976 -0.17233247 -0.0034376625 -0.15149729 -0.1346281 -0.012603372 0.097083576 0.053245876 -0.17265694 0.009844252 -0.107260555 -0.07652213 -0.05428153 -0.09248444 -0.07474694 0.04473452 -0.0051322803 0.18274105 0.049437292 -0.15640771 0.070328034 0.005791812 -0.02508351 -0.14306818 0.0984895 -0.14396103 0.14585862 0.031547055 -0.009230228 -0.023907641 0.015915198 0.060974658 0.11278018 0.10270676 -0.07466053 -0.11880646 -0.11536394 -0.053878885 -0.07261566 0.139093 0.14498109 0.005646368 -0.12989195 -0.046768773 0.017025307 0.06843412 -0.018305326 -0.118109405 0.0014266289 -0.037309337 0.013414439 0.06443294 0.11625764 -0.06771378 0.16145658 -0.07923482 -0.048879627 -0.042203832 0.123217314 0.11794826 -0.09013973 0.021820523 -0.06407003 0.0034254855 0.13855977 0.071380116 -0.0053200317 -0.10175643 -0.026920859 0.15535623 0.10776094 0.106132336 -0.14458448 0.0038586834 0.086485215 0.018785413 -0.12534814 -0.17323902 -0.01924052 0.12331561 0.0027815711 -0.19950654 -0.07434118 0.1197525 0.15134458 -0.03337472 0.013503733 0.14833218 -0.10425172 -0.08108049 -0.1276409 -0.18513952 0.14931239 -0.16401038 0.015413153 0.14281057
二人 -0.114627145 -0.09471087 -0.08072053 0.122824796 0.0021659578 -0.057208054 0.0191638 0.021455003 0.09993185 0.026762942 0.09754462 0.10383747 0.06819758 0.16543564 -0.03387913 -0.0113562355 0.09793765 0.15506971 -0.112949535 -0.10255568 0.114912905 0.04722037 0.17334607 -0.06958438 0.062386896 -0.09349907 0.16673407 0.09310112 -0.114086024 -0.16576219 0.0007204625 0.10930745 0.014970529 -0.016238859 0.049924668 0.16776311 -0.05892421 -0.10293341 -0.14609036 -0.007960153 -0.024227306 -0.1289198 0.04647119 -0.105765164 0.035048172 -0.017510582 0.027053818 -0.093085594 0.06181893 -0.07005471 -0.08851683 0.0698711 0.14081867 -0.015074823 -0.06884708 0.13384055 0.055614542 0.09320791 -0.0087591 0.07489855 -0.0462675 0.15435301 0.086915314 -0.053235725 0.0714146 0.12936305 0.13805196 -0.116775766 -0.13897847 -0.044117805 -0.18314686 -0.14226836 0.13272147 0.11291954 -0.13788642 0.022834832 0.0038952567 0.11056163 -0.100592695 0.07376701 -0.13733861 -0.043982066 -0.15223533 0.16818509 0.14928086 -0.042396 0.12943605 0.16350836 -0.011558966 0.060704038 0.05833998 -0.013987001 -0.04818132 -0.050956827 -0.109461434 -0.18078484 -0.062670834 -0.13313733 -0.103539266 0.12871242
调查组 0.10267388 -0.03072498 0.09661866 0.10713943 -0.19634174 -0.0887254 0.0009353689 -0.124034375 -0.021028522 0.063879006 0.09664232 0.028244378 -0.15126142 0.10933093 -0.019599244 -0.04015255 0.09262583 -0.06568357 -0.1324989 -0.12017684 0.053361416 0.10949675 0.13682087 -0.10064479 -0.026818613 -0.07107221 0.006035319 0.08902577 -0.081082106 -0.23052423 0.0666476 0.062978655 -0.07649048 0.10752171 0.13502876 0.021128241 0.042864166 0.08270047 0.029116277 -0.13162981 -0.10110477 0.101614654 0.10504479 -0.08815032 -0.08474656 -0.040109985 -0.060278658 0.10877949 0.15188998 0.02024083 0.1572534 -0.09289123 0.010657878 -0.0014865514 -0.10898202 0.07992549 0.113352016 0.067479745 0.16754454 -0.15282205 0.047205012 0.0967713 0.087754905 0.13867629 -0.18448251 0.109046675 0.107392766 -0.001166113 -0.07741485 -0.09913652 -0.07953094 -0.0031969752 0.115772784 0.16251427 -0.065036096 0.03901652 0.13882042 0.12862185 0.006487362 0.140403 -0.10545399 -0.09885051 0.013035332 0.072729245 0.14183716 -0.043026257 -0.011074822 0.058099277 0.15475114 0.019703181 0.013136422 -0.0036630137 -0.08892479 0.0055945804 0.14821282 0.05003613 0.14330469 -0.19845285 -0.1023154 0.12228487
粮堆 0.107392065 -0.019608611 0.1191662 -0.11434621 -0.10195647 0.04123316 -0.06739725 0.12610054 -0.1337235 0.037519287 -0.015286685 0.082976066 -0.16553418 0.13272482 -0.1309412 0.021541692 0.040040262 0.037763324 -0.08855734 0.11304671 0.032313604 0.17713784 -0.05713572 0.07356582 -0.11041735 0.012908013 -0.10121516 -0.16372958 0.07540057 -0.029746288 0.19300163 0.09643975 0.023707556 -0.07228765 0.111422 0.19472522 0.09594678 0.06742001 0.026135074 0.08991214 -0.04345201 -0.17572695 0.15590055 -0.14007689 -0.03205722 -0.13170274 0.09353689 0.07957641 -0.025206804 -0.0016591579 0.0013614702 -0.009876881 0.10127771 0.09143086 -0.013154768 0.03244852 -0.008444321 0.14589827 -0.040159047 -0.17218499 -0.041524366 0.021390231 0.1318162 0.1930802 -0.055632528 -0.014569339 -0.104902536 -0.017761124 -0.1296113 -0.05568181 -0.063809976 0.006286275 0.0010226426 -0.10887231 -0.03052404 -0.027829422 -0.07397502 -0.0150922695 -0.1130717 0.18009575 0.11488502 -0.13450631 -0.18449311 -0.105763294 0.19505405 -0.06224331 0.106932566 0.14302799 0.08283217 0.003350744 0.0969213 0.15535636 0.11970677 -0.060273636 0.13465239 -0.011740838 -0.082897075 -0.1001476 -0.07155417 -0.03207651
　 -0.13649832 -0.053430095 -0.04141563 0.12682518 -0.06439278 -0.09778697 0.026613628 0.09295005 0.12275392 -0.07479911 -0.13048851 -0.006795533 -0.14732718 0.040925596 -0.15094307 0.026874365 -0.10965651 -0.12821604 0.056856986 -0.13379939 0.08452775 0.15664282 -0.09221938 -0.013070688 0.06126582 -0.0022207345 -0.07470023 -0.12564091 -0.13760723 -0.23733392 -0.030347997 0.10506105 -0.073512085 0.049809076 0.089046724 0.156885 0.01154006 0.166372 -0.075267665 0.08737117 -0.006543325 0.123971485 -0.008255422 0.034415435 0.019461686 -0.12456048 0.13920951 0.1884989 0.19733644 -0.18633416 0.049681943 0.006523808 0.10961527 -0.056460846 -0.0704852 0.034475744 0.083707534 -0.013328167 0.036545668 -0.056608632 -0.0019311097 0.05715522 -0.043387525 0.101681694 -0.1042927 0.10254141 0.07316685 -0.03200378 0.040018722 -0.16952983 -0.013299395 0.068361275 -0.0795735 0.16354915 0.09220182 0.018023541 0.07829252 0.12941003 0.100026965 0.16376634 -0.07101709 -0.15832756 0.043994334 0.0053502987 0.07226566 0.060187366 -0.15133652 0.0037709007 0.14813598 -0.04721727 0.038758103 -0.08111185 -0.15313944 -0.10681893 0.021167655 -0.0959524 0.014235889 -0.20498775 -0.09491006 0.023761226
司机 0.03592641 0.0049736258 0.04888722 0.08155707 -0.040456586 0.016304795 -0.14315511 0.083316885 -0.032226965 -0.03421481 0.10453376 -0.09524851 0.0145811085 -0.11350505 0.04192874 -0.09012249 -0.14622667 -0.037870727 -0.033932924 0.16593318 -0.09359498 -0.021669846 0.025810134 -0.11860435 -0.18029465 0.024370309 0.13353992 0.089432016 -0.18055157 -0.20937183 0.118367516 -0.030212903 0.06979417 0.007983641 0.22786252 0.19351782 -0.0044996524 0.09634065 0.036509253 -0.091857724 0.11253171 0.006737475 -0.029919604 -0.006254198 0.17458007 -0.19605039 0.09422808 0.15209076 -0.0033826502 -0.019087771 -0.06157214 -0.075632185 -0.0055275955 -0.07032082 -0.053579416 0.031830657 0.077635534 -0.010032813 0.08372433 -0.11036309 -0.0076829502 0.035801053 -0.01877571 -0.07223698 -0.016483145 0.18775202 0.054329775 0.052146636 0.11898312 0.100610316 -0.075010404 0.04210307 -0.08661545 0.06535995 0.1315162 -0.089327276 -0.12608525 -0.038696747 -0.110595435 0.02328816 -0.071347125 -0.1122322 -0.06850448 0.13308576 0.2176789 -0.18715203 -0.108311355 0.13804479 0.08878792 -0.075665936 -0.12647638 0.058427326 -0.15462752 -0.010928715 0.048921183 -0.15890062 0.15296471 -0.0045667356 -0.05169312 -0.07926585
过 -0.065761425 0.06427964 0.074724406 0.04996529 -0.19921726 -0.0621791 0.043861505 -0.07803531 -0.01798755 -0.108404174 0.06876878 -0.04921036 -0.088541016 -0.019659199 0.044437144 -0.063901104 -0.071644224 -0.056466006 -0.017307933 0.04468978 -0.10891578 0.1653886 0.048059557 -0.20311417 -0.021502517 0.10322179 -0.10114013 0.11602593 0.072185315 -0.19434234 0.090414405 -0.06482337 0.03940238 -0.17903404 0.08479918 -0.06976729 0.08316531 0.15332504 -0.06097948 -0.049231254 -0.10066764 0.062905125 -0.039170664 -0.095640026 -0.1068432 -0.10991887 0.15449508 -0.039809424 -0.04751405 -0.1947685 0.13296342 0.16901112 0.1493827 -0.07062999 -0.014462624 -0.15149325 -0.087588206 0.2012361 0.19593762 0.12679446 0.05527399 -0.083987735 0.1353805 -0.02619471 -0.11853964 0.16852584 0.10913014 -0.033070832 0.078665964 -0.07132954 -0.07248665 0.000120011966 -0.077236034 -0.050678525 -0.08179927 0.13194333 0.1207244 0.09189424 -0.04625964 -0.06330086 0.13080882 -0.18276785 -0.01311629 0.029674182 -0.053230558 0.012958397 0.13458504 0.09315543 -0.06194634 -0.06629196 -0.08991789 0.10851067 0.023917293 0.009053658 0.110896796 -0.004292489 -0.13020316 -0.044036627 -0.030890364 0.118969224
拱 -0.039036427 0.11907688 -0.014855158 -0.12663084 -0.047323786 0.017423531 -0.15051149 -0.1372714 0.15533407 0.11010708 -0.101243906 -0.1472622 -0.10821314 0.16422905 0.040873136 -0.058408175 -0.13852681 0.16068348 0.13081734 0.017488657 -0.07806898 0.04067365 0.07017366 -0.027942108 -0.058420148 0.025759153 0.021828065 -0.039930418 -0.1210762 -0.21677628 0.10931023 -0.047217503 -0.13667853 -0.16019478 0.13758965 -0.043909077 0.07027482 0.0048046084 -0.18221745 -0.04564273 0.10154515 -0.111719586 0.05771629 -0.05217072 0.2086833 -0.21508637 0.13019516 -0.12019978 -0.05657384 -0.16984731 -0.025712958 -0.043187674 0.06651144 0.02640491 -0.052146032 0.010250321 0.014924876 -0.029006807 -0.018182408 0.024206206 -0.067358814 -0.10293232 0.06441859 0.022487938 -0.03783082 -0.031919982 0.0035853526 0.032601736 -0.037484825 -0.036500756 -0.019976027 -0.14759769 -0.032247998 -0.115689054 -0.028239476 0.13003354 0.0033090878 -0.050116852 0.020818427 0.20108813 0.045027215 -0.0994968 -0.13770032 0.13880885 0.037893634 -0.16274095 0.08616236 -0.09196491 0.1591183 0.056672845 0.097801305 0.07592475 0.112647645 -0.025038498 0.05816513 -0.1742533 -0.10761115 -0.1445834 -0.05880025 0.09798332
cm 0.10089797 -0.032131422 0.12097337 -0.030930314 -0.18099977 0.0017354587 -0.19101754 -0.0136661185 -0.014695313 0.040716127 0.085075974 0.015144046 0.0589884 0.11604229 -0.07471384 -0.12472388 0.095557675 -0.029189218 0.1631204 0.16469322 -0.14403944 -0.009740659 0.006824669 -0.006255627 -0.18747838 -0.02502518 0.18198134 -0.0892542 -0.051012404 -0.19901703 0.03273708 0.09393515 -0.15029141 -0.0700537 -0.080423854 0.080877595 -0.1219056 -0.1057944 -0.08747236 -0.12986515 -0.035209022 -0.019026317 0.03385326 -0.13351855 0.04947086 -0.08335265 0.07552269 -0.096103534 -0.08254713 -0.11043336 0.06477048 0.15552455 -0.13638045 0.09789781 0.037179537 -0.09470765 0.082696386 0.2022631 0.024558026 0.09694574 0.101825476 -0.10781193 -0.04065717 -0.03834443 -0.006799427 0.12227437 0.04608861 0.14405487 -0.09310215 0.047854602 -0.14951001 -0.04312608 -0.091864236 -0.1564526 0.11048744 0.14405307 -0.048994243 -0.008069674 -0.043930586 -0.11950173 0.17279515 0.11784747 0.0029041143 0.018887524 0.03715555 -0.10256423 -0.042466637 -0.15026532 -0.031932443 0.026193818 -0.1727374 0.032454573 0.024496403 0.09923714 0.13604854 -0.11653059 0.11276661 0.10500834 -0.028006045 -0.017237658
混凝土 0.04611665 0.17636189 -0.14060935 0.1413611 0.08586754 0.037030596 0.031111473 -0.007830737 0.0012273809 -0.11989793 0.04308193 0.16454567 0.0033568689 -0.015795764 -0.1845936 0.081242904 -0.04990155 -0.057949677 0.12906396 0.11178846 -0.0875461 0.11953859 -0.09180945 -0.1808896 0.022666223 -0.009518617 -0.03071956 0.115098834 -0.007457227 0.06549681 0.1122812 -0.018410016 -0.06913877 -0.10364598 0.011743938 0.042534195 -0.043709286 -0.029309466 -0.01285593 -0.021198953 0.14320171 0.038844913 -0.051776648 0.010460635 0.17010365 -0.2154601 -0.15794562 0.020577742 0.08491644 -0.070542455 0.22681308 0.034154266 0.14067897 -0.14804423 -0.07636037 0.11166947 -0.051907223 0.16702923 0.08509465 -0.027880453 0.010380091 0.16088448 0.008188038 -0.014071033 0.016478663 -0.081198156 0.083856784 -0.14931056 0.14306657 -0.11053527 -0.0412831 0.071782 0.15749988 0.11127014 0.03396997 -0.105105765 0.063107215 0.18661328 -0.0530917 0.164133 0.06830401 -0.2026638 0.011984331 -0.115783125 0.0019060092 0.00625367 -0.115652606 0.08418143 0.051467307 0.08608158 0.078567766 -0.07774689 0.062227204 0.07376081 0.1398304 -0.1379359 0.11628163 -0.07078341 0.04149063 -0.05329657
仓 0.06812166 0.15961038 -0.1325063 -0.10647353 0.05192566 -0.031457122 0.103375964 0.0038303924 -0.02553572 0.051537264 -0.14432943 -0.14108045 0.017288625 -0.010728095 0.10860514 0.01938019 0.09796439 0.041183695 0.14898093 0.093259074 -0.13313043 -0.00808512 -0.04956387 -0.22762604 -0.07815929 -0.1729132 0.18998992 -0.02704538 -0.106448695 -0.09899081 -0.034257013 0.07373602 -0.2207303 -0.005528369 -0.08411994 0.1028657 0.04064791 -0.040378746 -0.06521439 -0.050782204 -0.036107972 -0.043565225 0.0658773 -0.1382742 0.038264815 -0.060397204 0.13029394 0.065689705 0.0048059733 -0.0137746455 0.11678481 0.058731467 -0.17788929 0.043557554 -0.022103313 0.14680727 -0.0142893195 0.0923457 -0.029334811 -0.005914463 -0.067307785 -0.07810794 0.109698385 0.16543524 0.06452152 0.028338239 -0.1294941 -0.076159716 -0.10468202 -0.07788167 -0.0911841 -0.11228865 0.10148782 -0.15344101 0.035863303 0.045339283 -0.12670386 0.1009254 0.19307388 0.09742229 0.028944397 -0.015077978 -0.00038598845 0.12960985 0.033341665 -0.13662659 -0.04724762 0.12989868 0.11886478 -0.13199484 -0.04244806 0.073518045 -0.13224623 0.07872106 -0.052162785 0.12060493 0.13298905 -0.051353782 -0.2355727 0.07117337
产生 0.10784598 -0.0648703 0.10672605 0.0712764 0.05854009 0.0989246 -0.07017934 0.00038820962 -0.14739767 0.12622073 0.086154304 0.021084411 -0.120186955 0.042261615 -0.06909989 0.12795149 0.012039176 0.16582839 0.024023755 -0.013749103 -0.08193427 0.18698235 0.064388126 -0.14900978 -0.004105923 -0.1690674 -0.07765792 -0.021021128 -0.0032664808 -0.18379325 -0.04666439 -0.033267528 -0.008217293 0.03930016 -0.07778552 -0.007665475 0.08255699 0.17846188 0.07859928 0.015008592 -0.13208604 -0.09421177 0.08095878 0.08125866 -0.007842335 -0.16458188 -0.1297374 -0.05973816 -0.0068387548 -0.045933772 -0.034222342 0.06829826 -0.13232939 -0.08511014 0.099681556 0.1331287 0.049152963 -0.087625906 0.16279508 -0.09799656 -0.10931464 0.024236849 -0.020963335 0.05461717 -0.08229252 0.1870816 -0.10811053 -0.13864484 0.058473535 -0.12585187 -0.18658307 -0.13422976 0.0924296 -0.11984926 -0.06333729 0.05105319 0.12194134 0.06765512 0.036031768 -0.053085245 0.03451464 -0.1610342 -0.09505704 -0.12049652 0.0851637 -0.12861003 -0.097110346 0.09722222 -0.11343719 0.024118192 0.10627056 -0.095196426 -0.08795569 0.14127554 0.11179608 0.038520012 0.09051771 -0.07016758 -0.21288681 0.102703735
拆除 -0.013777782 0.05750557 0.11055866 0.0230378 -0.022375263 -0.109579995 -0.122020796 -0.117122844 -0.034195643 0.061058123 0.12942185 0.059100144 -0.14743122 -0.01040048 -0.046777368 -0.07378463 -0.16260515 0.16676857 -0.023855796 -0.0040018256 -0.11526977 0.054570075 0.1424033 0.0046037724 0.03526939 0.0690949 0.053261116 -0.0067167715 -0.037603937 -0.16972941 0.16346318 0.060430527 -0.10852683 0.03955288 0.03908789 0.07134155 -0.08616654 -0.08270463 -0.1556666 0.02334201 0.0030468572 0.025647696 -0.027477298 0.08379967 0.19038759 -0.19909023 0.06264988 0.17780301 0.14687243 -0.08718984 0.09278528 0.0562777 0.10222006 -0.12661944 0.01513968 -0.13185412 -0.053956266 -0.012802498 0.17441185 0.080787964 -0.0808604 0.0042117354 -0.105232745 0.124228396 0.091056764 -0.097618245 -0.1311674 0.08997314 -0.058177765 -0.13449015 0.029542249 0.03277972 -0.122532986 -0.1200858 -0.06919395 0.12286638 -0.09058072 0.05967502 0.10762813 0.13817126 0.16317365 -0.14027427 -0.017034901 0.112798475 0.03150384 -0.1591016 0.07188419 -0.009522355 -0.13317823 0.14862688 0.036685463 0.121289395 0.119811594 -0.14401269 -0.0068550785 0.030756019 0.0559553 -0.062614225 -0.16106154 -0.12640482
安排 0.14137535 -0.062363513 0.01193179 0.1281617 -0.09599493 -0.06842891 -0.028540246 0.089899726 0.0488455 -0.085367694 -0.045986734 0.05203635 0.023737717 0.057374712 0.13908042 -0.14996938 0.008800707 -0.13743143 -0.02818296 -0.14117554 0.061681487 0.011841686 0.1712458 0.02706328 0.044227913 -0.08802685 0.14897123 0.02174397 0.09271895 -0.1638823 0.18964483 -0.05986294 -0.004925614 -0.062218897 0.13342564 -0.038603965 -0.09409489 -0.07699994 -0.147329 -0.11148786 -0.15986073 -0.1211789 0.11103833 0.16272879 0.17180389 -0.07356145 0.05874227 -0.07714908 -0.018537808 -0.06844803 -0.08755597 -0.04212857 -0.034686092 -0.04608546 0.17411202 0.08173575 0.008220176 0.15416253 0.026437279 0.11683234 -0.12669596 -0.057587992 0.17038652 -0.0723078 -0.12969969 -0.11827146 -0.02204764 0.14970535 0.022842618 -0.1184386 -0.14765877 -0.004280062 0.0369186 0.091623366 0.0360556 -0.071207225 -0.09252934 -0.062412534 0.09810217 0.106740855 0.105282225 -0.17921026 -0.10459686 0.100634925 -0.08420496 -0.036097936 0.046629366 0.063119195 0.10063706 0.16171645 0.124435544 -0.123672605 -0.14778483 0.0051181414 0.05690316 0.103753224 -0.12951154 0.0503669 -0.0021306872 -0.11258914
过火 0.042511716 0.10535133 0.013082609 0.15315746 -0.04587115 0.09932832 -0.13502742 -0.1633167 -0.10958429 0.107722506 0.05498518 -0.06683259 -0.13690038 -0.0042468794 -0.15006515 0.06874572 -0.12111139 -0.09877685 0.016180089 0.13066193 0.059626818 0.09520133 0.090770796 -0.012625329 0.11755509 -0.10062831 0.10211711 -0.027469346 0.00053891115 -0.20073941 -0.07374019 -0.0030345756 0.07096945 -0.14213969 0.036007307 0.08880206 0.14192447 0.027723912 0.0030135943 0.12153708 -0.09184634 -0.053111047 -0.09086929 -0.1415109 0.1402187 -0.09895453 0.15196033 0.13279009 -0.084541865 -0.12533216 0.16589312 0.038911477 -0.15265496 -0.15881532 0.01759708 0.07394726 0.05680353 0.051114276 0.16561513 -0.09921809 0.07990698 0.04427495 0.035979345 0.11551813 -0.15247172 -0.12145114 -0.12823513 0.16426171 -0.13911912 0.0099415425 -0.16040884 0.13709179 -0.106954664 -0.093745105 -0.07826158 0.08949394 -0.10720601 -0.077216156 -0.097592816 -0.0211236 -0.049978968 -0.066379145 0.12281939 0.06359925 -0.021777079 -0.031144347 0.11136643 0.09167299 -0.13809504 -0.03014949 -0.012704371 -0.05026593 -0.14812179 -0.11318614 -0.07757484 0.07848921 -0.047384482 -0.07124384 0.011167281 -0.034588274
措施 -0.08361591 0.029588224 -0.07071782 0.13963376 -0.12585936 -0.027327614 -0.18500552 -0.047463708 0.013765893 -0.0701962 -0.12817964 0.09284393 -0.18733345 0.050967664 -0.0699618 -0.08557709 -0.13996503 -0.12764266 -0.10446029 -0.007753335 0.10531286 0.18131381 0.09912576 -0.088030696 0.0076277624 -0.113790296 0.11741916 0.026337668 -0.12652047 0.007497139 0.15888853 0.13569725 -0.06125721 0.10496771 0.19769885 -0.06301981 0.11001957 0.1458956 0.00383408 0.043441772 0.011902093 -0.03617017 -0.14493208 -0.04425873 -0.056768574 -0.039787885 -0.15218492 -0.06269722 0.19403943 0.0550841 0.043243807 0.17247675 -0.10548908 0.052092608 0.035631627 -0.115156196 -0.0950114 0.19330016 -0.04641966 -0.040863324 0.14112781 -0.069483586 -0.03325927 0.0398573 -0.18180884 0.008007474 -0.14233984 0.046893258 -0.02684833 -0.010456377 0.09493059 0.05019976 0.1439645 0.01139354 0.10292354 -0.08327284 0.09661898 -0.11037822 -0.058196098 0.15061998 -0.11867639 -0.09898345 -0.053597044 0.041336358 -0.09091021 -0.13077387 0.06546871 0.023275204 -0.073298104 0.04630128 -0.11962131 0.04912608 -0.027581995 -0.112223305 -0.13980563 -0.1599221 -0.010203267 -0.016334623 0.07374427 -0.10012867
大豆 0.090374425 0.17553009 0.07395887 0.04568761 -0.022925986 -0.18935211 -0.13124461 0.021262944 0.027385678 -0.1410455 -0.025239253 0.12451292 -0.12716568 0.10125008 -0.019280283 0.13775241 -0.08116837 0.09994237 0.13134728 -0.07209586 -0.04609927 0.12349087 0.17548843 -0.13961412 -0.11133175 -0.13836294 0.09894808 -0.016508566 -0.10333891 -0.23078513 -0.00039914422 0.07827597 -0.033423807 -0.01686605 0.19926284 -0.09893224 -0.06650984 0.033834033 -0.14257345 0.013720166 -0.08597436 0.08086388 0.041169763 -0.112685785 0.022982437 -0.009442398 0.014192346 0.055766854 0.16366154 0.10647314 0.2073746 -0.048431188 -0.13690972 0.13851431 0.0074322694 -0.13618852 -0.038738657 0.14477281 0.18553421 -0.043135524 -0.09535926 0.100472786 -0.09121968 0.119657345 0.10207538 0.07795553 0.11035361 -0.13468236 0.056247722 0.012121655 0.0956755 -0.0818237 -0.018558355 -0.07149882 0.06624759 -0.015052697 -0.08224025 0.0051514152 0.11232679 -0.052376598 -0.022694642 -0.13587138 -0.079453394 -0.0542377 0.035727505 0.0045726756 -0.05091521 -0.13202325 0.02985443 -0.10888876 0.11176506 0.14041737 0.062492166 -0.09126766 0.021843249 0.115680404 0.0022317753 -0.081268065 -0.094789416 -0.11956181
原因 0.048648063 0.2001084 -0.112980045 0.14533244 0.06272525 -0.028747693 0.10689644 0.0031888147 -0.13016817 -0.026710073 0.06031819 0.018799912 -0.10124886 0.050090984 -0.14045429 -0.04544715 -0.14701173 0.1717585 -0.027181994 0.05170928 -0.18857683 -0.0012261134 -0.11209486 -0.09686826 0.110577464 -0.1262149 0.11614511 -0.065525845 -0.108895905 -0.007887513 -0.03897514 -0.0755564 -0.1548978 -0.09623814 0.010469346 0.13426766 -0.124647774 0.006708138 -0.03919455 -0.10217466 0.0034027349 -0.009718126 0.17060195 0.087352514 0.09162967 -0.13826346 -0.01882047 0.1435508 0.04677843 0.09144173 -0.00047672822 -0.1170437 -0.13130234 -0.105616085 0.08891445 -0.120079644 -0.08042398 -0.057627175 -0.10253484 0.12523642 0.010739795 0.16281076 -0.017395122 0.17307691 -0.14565481 -0.0007813441 -0.05104007 0.04616977 0.1507959 -0.13902667 0.10980681 0.12479926 0.042313166 -0.003174472 -0.0652175 0.13971052 -0.031170728 0.051519603 0.15139297 -0.09262793 0.011915498 -0.038416505 -0.022630576 0.04356442 0.14295802 0.06671286 0.03735707 0.01583342 -0.0157599 -0.13659176 0.06861594 -0.035510276 0.15033127 -0.13938108 0.070383124 -0.052597854 0.15580872 -0.18413723 -0.14947535 -0.0037577832
粮食局 -0.056913294 0.09617866 0.00778217 0.12297933 -0.14371073 0.09261962 0.105564244 -0.07906562 -0.11629078 -0.15660007 0.110545576 0.12746093 -0.11700182 -0.024708858 0.047754124 0.16786249 -0.0151643995 0.042642828 -0.098517545 -0.017586228 0.044204157 0.04307111 -0.10156647 -0.08078415 -0.18115278 0.006062169 0.083996296 0.11563304 -0.16063681 -0.1960703 -0.034367792 0.07247075 -0.2012231 -0.0075662015 0.16256168 0.08519453 0.01844802 0.0756503 0.045568865 0.107880786 -0.092927255 0.02601181 -0.0153205395 -0.08078056 0.07373771 -0.18806854 0.09387892 0.080734715 0.016199043 -0.190105 -0.0017744327 0.15115353 -0.08866122 0.0015135031 -0.12627684 -0.14865918 0.12130398 0.20835483 0.030194726 -0.17998107 0.024346903 -0.07536567 0.15562955 0.11590295 -0.08294221 -0.011608063 0.09167912 0.030799739 0.07470924 0.064339295 -0.070050426 -0.066945754 0.038252287 0.16960391 0.103644595 -0.051070496 0.020025162 -0.11303723 0.10652495 -0.032694016 0.008043229 -0.08800207 0.08640546 0.14539632 0.092106804 -0.04844877 -0.056368113 0.07649653 -0.0851391 -0.05031294 0.10133423 0.15363301 0.081348576 0.016561989 -0.033852275 -0.08660837 -0.0991534 0.027699724 0.06223963 -0.128151
